{"learner":{"attributes":{"best_iteration":"281","best_score":"0.00034739783553889","scikit_learn":"{\"_estimator_type\": \"classifier\"}"},"feature_names":[],"feature_types":[],"gradient_booster":{"model":{"gbtree_model_param":{"num_parallel_tree":"1","num_trees":"300"},"iteration_indptr":[0,1,2,3,4,5,6,7,8,9,10,11,12,13,14,15,16,17,18,19,20,21,22,23,24,25,26,27,28,29,30,31,32,33,34,35,36,37,38,39,40,41,42,43,44,45,46,47,48,49,50,51,52,53,54,55,56,57,58,59,60,61,62,63,64,65,66,67,68,69,70,71,72,73,74,75,76,77,78,79,80,81,82,83,84,85,86,87,88,89,90,91,92,93,94,95,96,97,98,99,100,101,102,103,104,105,106,107,108,109,110,111,112,113,114,115,116,117,118,119,120,121,122,123,124,125,126,127,128,129,130,131,132,133,134,135,136,137,138,139,140,141,142,143,144,145,146,147,148,149,150,151,152,153,154,155,156,157,158,159,160,161,162,163,164,165,166,167,168,169,170,171,172,173,174,175,176,177,178,179,180,181,182,183,184,185,186,187,188,189,190,191,192,193,194,195,196,197,198,199,200,201,202,203,204,205,206,207,208,209,210,211,212,213,214,215,216,217,218,219,220,221,222,223,224,225,226,227,228,229,230,231,232,233,234,235,236,237,238,239,240,241,242,243,244,245,246,247,248,249,250,251,252,253,254,255,256,257,258,259,260,261,262,263,264,265,266,267,268,269,270,271,272,273,274,275,276,277,278,279,280,281,282,283,284,285,286,287,288,289,290,291,292,293,294,295,296,297,298,299,300],"tree_info":[0,0,0,0,0,0,0,0,0,0,0,0,0,0,0,0,0,0,0,0,0,0,0,0,0,0,0,0,0,0,0,0,0,0,0,0,0,0,0,0,0,0,0,0,0,0,0,0,0,0,0,0,0,0,0,0,0,0,0,0,0,0,0,0,0,0,0,0,0,0,0,0,0,0,0,0,0,0,0,0,0,0,0,0,0,0,0,0,0,0,0,0,0,0,0,0,0,0,0,0,0,0,0,0,0,0,0,0,0,0,0,0,0,0,0,0,0,0,0,0,0,0,0,0,0,0,0,0,0,0,0,0,0,0,0,0,0,0,0,0,0,0,0,0,0,0,0,0,0,0,0,0,0,0,0,0,0,0,0,0,0,0,0,0,0,0,0,0,0,0,0,0,0,0,0,0,0,0,0,0,0,0,0,0,0,0,0,0,0,0,0,0,0,0,0,0,0,0,0,0,0,0,0,0,0,0,0,0,0,0,0,0,0,0,0,0,0,0,0,0,0,0,0,0,0,0,0,0,0,0,0,0,0,0,0,0,0,0,0,0,0,0,0,0,0,0,0,0,0,0,0,0,0,0,0,0,0,0,0,0,0,0,0,0,0,0,0,0,0,0,0,0,0,0,0,0,0,0,0,0,0,0,0,0,0,0,0,0,0,0,0,0,0,0,0,0,0,0,0,0],"trees":[{"base_weights":[-2.1824199E-3,1.9947871E0,-1.9931952E0,4.408163E-1,9.98914E-2,7.8620695E-2,-1.9974788E0,-1.15E0,8.551724E-2,-1.9990877E0,6.769231E-2,2.2499999E-2,-7.9E-2,-9.997227E-2,-2.5454545E-2],"categories":[],"categories_nodes":[],"categories_segments":[],"categories_sizes":[],"default_left":[0,0,0,0,0,0,0,0,0,0,0,0,0,0,0],"id":0,"left_children":[1,3,5,7,-1,-1,9,11,-1,13,-1,-1,-1,-1,-1],"loss_changes":[4.4456555E4,2.5253906E1,8.870117E1,2.6762867E1,0E0,0E0,3.2927734E1,4.952E0,0E0,1.7089844E0,0E0,0E0,0E0,0E0,0E0],"parents":[2147483647,0,0,1,1,2,2,3,3,6,6,7,7,9,9],"right_children":[2,4,6,8,-1,-1,10,12,-1,14,-1,-1,-1,-1,-1],"split_conditions":[-1.2086945E0,-7.8267224E-2,-4.1466013E-1,-2.7043821E-2,9.98914E-2,7.8620695E-2,7.6750955E-3,-1.2125522E0,8.551724E-2,1.1727485E-1,6.769231E-2,2.2499999E-2,-7.9E-2,-9.997227E-2,-2.5454545E-2],"split_indices":[4,44,3,46,0,0,3,4,0,46,0,0,0,0,0],"split_type":[0,0,0,0,0,0,0,0,0,0,0,0,0,0,0],"sum_hessian":[1.117925E4,5.58125E3,5.598E3,1.125E1,5.57E3,6.25E0,5.59175E3,5E0,6.25E0,5.5895E3,2.25E0,1E0,4E0,5.58775E3,1.75E0],"tree_param":{"num_deleted":"0","num_feature":"77","num_nodes":"15","size_leaf_vector":"1"}},{"base_weights":[-3.3322563E-3,1.9000561E0,-1.8976985E0,1.9021426E0,-7.946428E-1,-1.9024801E0,8.4155574E-2,1.0353972E0,1.9031417E0,-7.191981E-2,2.9369403E-2,6.2444925E-2,-1.9038433E0,8.021542E-2,-2.4801698E-1,9.517499E-2,2.2314187E-2,-9.521781E-2,-6.387076E-3,2.9679773E-2,-5.1184352E-2],"categories":[],"categories_nodes":[],"categories_segments":[],"categories_sizes":[],"default_left":[0,0,0,0,0,0,0,0,0,0,0,0,0,0,0,0,0,0,0,0,0],"id":1,"left_children":[1,3,5,7,9,11,-1,13,15,-1,-1,-1,17,-1,19,-1,-1,-1,-1,-1,-1],"loss_changes":[4.0397656E4,3.304492E1,9.936719E1,2.5683594E0,5.371546E0,2.6533203E1,0E0,6.9135284E0,1.8261719E0,0E0,0E0,0E0,4.6601562E0,0E0,2.9327943E0,0E0,0E0,0E0,0E0,0E0,0E0],"parents":[2147483647,0,0,1,1,2,2,3,3,4,4,5,5,7,7,8,8,12,12,14,14],"right_children":[2,4,6,8,10,12,-1,14,16,-1,-1,-1,18,-1,20,-1,-1,-1,-1,-1,-1],"split_conditions":[-1.2086945E0,3.3881864E-1,1.4161107E-1,-7.8267224E-2,-1.3228366E-1,-4.1494143E-1,8.4155574E-2,-1.2137232E0,2.5326124E-1,-7.191981E-2,2.9369403E-2,6.2444925E-2,3.0538568E-2,8.021542E-2,-1.2018043E0,9.517499E-2,2.2314187E-2,-9.521781E-2,-6.387076E-3,2.9679773E-2,-5.1184352E-2],"split_indices":[4,2,46,44,46,3,0,4,2,0,0,0,44,0,2,0,0,0,0,0,0],"split_type":[0,0,0,0,0,0,0,0,0,0,0,0,0,0,0,0,0,0,0,0,0],"sum_hessian":[1.1201785E4,5.587559E3,5.614226E3,5.583567E3,3.99226E0,5.6072354E3,6.9910283E0,7.737949E0,5.575829E3,2.74514E0,1.2471199E0,1.9969126E0,5.6052383E3,5.2421126E0,2.495836E0,5.5740835E3,1.7456417E0,5.6034917E3,1.746647E0,1.2477843E0,1.2480518E0],"tree_param":{"num_deleted":"0","num_feature":"77","num_nodes":"21","size_leaf_vector":"1"}},{"base_weights":[-4.45643E-3,-1.3071238E0,1.7972192E0,-1.690482E0,1.8112831E0,1.8090048E0,-8.522473E-2,6.1163926E-1,-1.7906901E0,9.095988E-2,-5.538561E-2,8.8574517E-1,9.1002874E-2,-1.707567E0,1.0793935E0,-1.806386E0,8.72706E-2,1.6337163E0,-1.4376531E0,-6.811768E-3,-8.755508E-2,1.546857E0,2.555676E-1,-1.6336616E0,-9.101075E-2,1.710825E0,5.443488E-3,1.614835E-2,-8.367383E-2,9.004309E-2,5.3409804E-2,-8.814857E-2,8.888238E-2,-1.6588364E-2,-8.977767E-2,7.8512225E-3,8.7618254E-2],"categories":[],"categories_nodes":[],"categories_segments":[],"categories_sizes":[],"default_left":[0,0,0,0,0,0,0,0,0,0,0,0,0,0,0,0,0,0,0,0,0,0,0,0,0,0,0,0,0,0,0,0,0,0,0,0,0],"id":2,"left_children":[1,3,5,7,9,11,-1,13,15,-1,-1,17,-1,19,21,23,-1,25,27,-1,-1,29,31,33,-1,35,-1,-1,-1,-1,-1,-1,-1,-1,-1,-1,-1],"loss_changes":[2.6046016E4,7.702833E3,1.9528223E2,1.3245137E3,1.8386475E1,4.548242E1,0E0,2.621143E2,3.0827344E2,0E0,0E0,1.0136539E2,0E0,2.352005E0,7.6581116E1,9.755859E0,0E0,4.7574615E0,6.6428223E0,0E0,0E0,1.3296722E1,2.2989178E2,8.687781E1,0E0,2.2037811E0,0E0,0E0,0E0,0E0,0E0,0E0,0E0,0E0,0E0,0E0,0E0],"parents":[2147483647,0,0,1,1,2,2,3,3,4,4,5,5,7,7,8,8,11,11,13,13,14,14,15,15,17,17,18,18,21,21,22,22,23,23,25,25],"right_children":[2,4,6,8,10,12,-1,14,16,-1,-1,18,-1,20,22,24,-1,26,28,-1,-1,30,32,34,-1,36,-1,-1,-1,-1,-1,-1,-1,-1,-1,-1,-1],"split_conditions":[9.327207E-3,1.1727485E-1,4.1320792E-1,-1.2296666E0,-3.8910487E-1,2.224536E-2,-8.522473E-2,-7.8267224E-2,-2.1322711E-1,9.095988E-2,-5.538561E-2,-1.0048257E0,9.1002874E-2,-8.8838863E-1,-5.7296336E-1,-3.947431E-1,8.72706E-2,-1.1864394E0,-3.8862062E-1,-6.811768E-3,-8.755508E-2,-4.1180483E-1,-2.5733674E-1,-3.1253096E-1,-9.101075E-2,-1.2097396E0,5.443488E-3,1.614835E-2,-8.367383E-2,9.004309E-2,5.3409804E-2,-8.814857E-2,8.888238E-2,-1.6588364E-2,-8.977767E-2,7.8512225E-3,8.7618254E-2],"split_indices":[44,46,2,2,2,44,0,44,1,0,0,2,0,0,0,3,0,2,3,0,0,3,13,14,0,49,0,0,0,0,0,0,0,0,0,0,0],"split_type":[0,0,0,0,0,0,0,0,0,0,0,0,0,0,0,0,0,0,0,0,0,0,0,0,0,0,0,0,0,0,0,0,0,0,0,0,0],"sum_hessian":[1.1095673E4,6.4398164E3,4.655857E3,5.735249E3,7.04567E2,4.6407495E3,1.5107324E1,2.3897928E2,5.49627E3,7.030717E2,1.4952452E0,5.596575E1,4.584784E3,3.962875E1,1.9935052E2,5.472496E3,2.377379E1,4.2593513E1,1.3372239E1,1.241585E0,3.8387165E1,1.2654568E2,7.280485E1,4.1503644E2,5.0574595E3,4.036479E1,2.2287195E0,1.4858149E0,1.1886424E1,8.073297E1,4.5812702E1,3.1201862E1,4.1602985E1,4.6307755E1,3.687287E2,1.2381781E0,3.9126614E1],"tree_param":{"num_deleted":"0","num_feature":"77","num_nodes":"37","size_leaf_vector":"1"}},{"base_weights":[1.3924928E-3,1.7469169E0,-1.7458057E0,1.749341E0,-6.307406E-2,6.864131E-2,-1.7493068E0,9.588127E-1,1.7502524E0,-1.7509171E0,6.315766E-2,7.438961E-2,-2.2915797E-1,8.7537184E-2,6.0825574E-1,-2.4502072E-2,-8.7554626E-2,2.7938548E-2,-4.796211E-2,5.5401694E-2,-1.1315325E-2],"categories":[],"categories_nodes":[],"categories_segments":[],"categories_sizes":[],"default_left":[0,0,0,0,0,0,0,0,0,0,0,0,0,0,0,0,0,0,0,0,0],"id":3,"left_children":[1,3,5,7,-1,-1,9,11,13,15,-1,-1,17,-1,19,-1,-1,-1,-1,-1,-1],"loss_changes":[3.3440324E4,4.2257812E1,6.226953E1,1.9980469E0,0E0,0E0,2.8816406E1,5.9022155E0,1.7714844E0,1.2890625E-1,0E0,0E0,2.5739696E0,0E0,1.9963373E0,0E0,0E0,0E0,0E0,0E0,0E0],"parents":[2147483647,0,0,1,1,2,2,3,3,6,6,7,7,8,8,9,9,12,12,14,14],"right_children":[2,4,6,8,-1,-1,10,12,14,16,-1,-1,18,-1,20,-1,-1,-1,-1,-1,-1],"split_conditions":[-1.2086945E0,3.898879E-1,-4.1466013E-1,-7.8267224E-2,-6.307406E-2,6.864131E-2,4.3362968E-2,-1.2133917E0,2.5326124E-1,-1.2719395E0,6.315766E-2,7.438961E-2,-3.2490522E-1,8.7537184E-2,-1.2130392E0,-2.4502072E-2,-8.7554626E-2,2.7938548E-2,-4.796211E-2,5.5401694E-2,-1.1315325E-2],"split_indices":[4,2,3,44,0,0,44,4,2,2,0,0,5,0,4,0,0,0,0,0,0],"split_type":[0,0,0,0,0,0,0,0,0,0,0,0,0,0,0,0,0,0,0,0,0],"sum_hessian":[1.0962842E4,5.484076E3,5.478765E3,5.4801123E3,3.9640503E0,5.672988E0,5.4730923E3,7.649439E0,5.472463E3,5.4706196E3,2.472371E0,5.1763225E0,2.4731164E0,5.4694893E3,2.9736881E0,1.2295465E0,5.46939E3,1.2364165E0,1.2366999E0,1.7298856E0,1.2438025E0],"tree_param":{"num_deleted":"0","num_feature":"77","num_nodes":"21","size_leaf_vector":"1"}},{"base_weights":[4.816977E-3,1.6838366E0,-1.6834085E0,1.6858659E0,-5.7564344E-2,6.599777E-2,-1.6867974E0,7.711649E-1,1.6871938E0,-8.441097E-2,5.978635E-2,7.368372E-2,-4.959947E-1,8.438302E-2,5.9894294E-1,2.764071E-2,-5.7540275E-2,5.506384E-2,-1.1751925E-2],"categories":[],"categories_nodes":[],"categories_segments":[],"categories_sizes":[],"default_left":[0,0,0,0,0,0,0,0,0,0,0,0,0,0,0,0,0,0,0],"id":4,"left_children":[1,3,5,7,-1,-1,9,11,13,-1,-1,-1,15,-1,17,-1,-1,-1,-1],"loss_changes":[3.073448E4,3.326758E1,5.7291016E1,5.0527344E0,0E0,0E0,2.4207031E1,9.576027E0,1.5146484E0,0E0,0E0,0E0,3.5818715E0,0E0,2.0073278E0,0E0,0E0,0E0,0E0],"parents":[2147483647,0,0,1,1,2,2,3,3,6,6,7,7,8,8,12,12,14,14],"right_children":[2,4,6,8,-1,-1,10,12,14,-1,-1,-1,16,-1,18,-1,-1,-1,-1],"split_conditions":[-1.2086945E0,4.1320792E-1,-4.1466013E-1,-7.8267224E-2,-5.7564344E-2,6.599777E-2,7.6750955E-3,-1.2133917E0,2.5326124E-1,-8.441097E-2,5.978635E-2,7.368372E-2,-3.487148E-1,8.438302E-2,-4.8191687E-1,2.764071E-2,-5.7540275E-2,5.506384E-2,-1.1751925E-2],"split_indices":[4,2,3,44,0,0,3,4,2,0,0,0,33,0,52,0,0,0,0],"split_type":[0,0,0,0,0,0,0,0,0,0,0,0,0,0,0,0,0,0,0],"sum_hessian":[1.0840755E4,5.435227E3,5.4055273E3,5.4317803E3,3.4470985E0,5.62135E0,5.3999062E3,8.826341E0,5.4229536E3,5.397692E3,2.2139328E0,5.624228E0,3.2021127E0,5.419987E3,2.9668517E0,1.2319503E0,1.9701625E0,1.726392E0,1.2404597E0],"tree_param":{"num_deleted":"0","num_feature":"77","num_nodes":"19","size_leaf_vector":"1"}},{"base_weights":[-6.1023296E-3,1.628303E0,-1.6271442E0,1.6301495E0,-5.3960677E-2,-1.6306242E0,7.1821E-2,6.7155087E-1,1.6314559E0,5.7459857E-2,-1.6319964E0,-6.060584E-1,7.027227E-2,8.161493E-2,1.0614158E0,-1.6325831E0,-0E0,9.108365E-3,-5.333199E-2,7.399095E-2,-5.836023E-2,-2.2436399E-2,-8.1637494E-2],"categories":[],"categories_nodes":[],"categories_segments":[],"categories_sizes":[],"default_left":[0,0,0,0,0,0,0,0,0,0,0,0,0,0,0,0,0,0,0,0,0,0,0],"id":5,"left_children":[1,3,5,7,-1,9,-1,11,13,-1,15,17,-1,-1,19,21,-1,-1,-1,-1,-1,-1,-1],"loss_changes":[2.822765E4,2.8336914E1,5.938965E1,5.3125E0,0E0,2.2304688E1,0E0,9.3886795E0,5.4296875E-1,0E0,4.9726562E0,1.7130466E0,0E0,0E0,1.1873409E1,1.1328125E-1,0E0,0E0,0E0,0E0,0E0,0E0,0E0],"parents":[2147483647,0,0,1,1,2,2,3,3,5,5,7,7,8,8,10,10,11,11,14,14,15,15],"right_children":[2,4,6,8,-1,10,-1,12,14,-1,16,18,-1,-1,20,22,-1,-1,-1,-1,-1,-1,-1],"split_conditions":[-1.2086945E0,4.1320792E-1,1.6542727E-1,-7.8267224E-2,-5.3960677E-2,-4.1466013E-1,7.1821E-2,-1.7357701E-1,1.1725971E-1,5.7459857E-2,3.0538568E-2,-3.411083E-1,7.027227E-2,8.161493E-2,-3.119221E-1,-1.2725164E0,-0E0,9.108365E-3,-5.333199E-2,7.399095E-2,-5.836023E-2,-2.2436399E-2,-8.1637494E-2],"split_indices":[4,2,46,44,0,3,0,46,2,0,44,3,0,0,14,2,0,0,0,0,0,0,0],"split_type":[0,0,0,0,0,0,0,0,0,0,0,0,0,0,0,0,0,0,0,0,0,0,0],"sum_hessian":[1.0652196E4,5.3042017E3,5.3479946E3,5.3010215E3,3.180364E0,5.3424263E3,5.568251E0,8.019501E0,5.293002E3,2.1873164E0,5.3402393E3,2.9397428E0,5.0797577E0,5.2831543E3,9.847518E0,5.3382666E3,1.9725744E0,1.2270949E0,1.7126479E0,8.611628E0,1.2358906E0,1.2151734E0,5.3370513E3],"tree_param":{"num_deleted":"0","num_feature":"77","num_nodes":"23","size_leaf_vector":"1"}},{"base_weights":[7.0840972E-3,1.5796927E0,-1.5779016E0,7.906846E-2,-6.0778853E-2,-1.5816464E0,7.077323E-2,3.39069E-2,-1.5825374E0,-1.5830126E0,-4.311871E-1,-2.1867104E-2,-7.915884E-2,1.0412011E-2,-4.4022392E-2],"categories":[],"categories_nodes":[],"categories_segments":[],"categories_sizes":[],"default_left":[0,0,0,0,0,0,0,0,0,0,0,0,0,0,0],"id":6,"left_children":[1,3,5,-1,-1,7,-1,-1,9,11,13,-1,-1,-1,-1],"loss_changes":[2.5951041E4,2.6448242E1,6.0378906E1,0E0,0E0,1.1592773E1,0E0,0E0,1.9472656E0,8.0078125E-2,1.2838949E0,0E0,0E0,0E0,0E0],"parents":[2147483647,0,0,1,1,2,2,5,5,8,8,9,9,10,10],"right_children":[2,4,6,-1,-1,8,-1,-1,10,12,14,-1,-1,-1,-1],"split_conditions":[-1.2086945E0,4.8502633E-1,1.6542727E-1,7.906846E-2,-6.0778853E-2,-4.1466013E-1,7.077323E-2,3.39069E-2,-9.472474E-2,-1.2725164E0,-5.323468E-1,-2.1867104E-2,-7.915884E-2,1.0412011E-2,-4.4022392E-2],"split_indices":[4,2,46,0,0,3,0,0,3,2,0,0,0,0,0],"split_type":[0,0,0,0,0,0,0,0,0,0,0,0,0,0,0],"sum_hessian":[1.040939E4,5.22513E3,5.1842603E3,5.222468E3,2.6620975E0,5.178287E3,5.9730797E0,1.6972792E0,5.17659E3,5.173993E3,2.5970716E0,1.210619E0,5.172782E3,1.2012467E0,1.3958249E0],"tree_param":{"num_deleted":"0","num_feature":"77","num_nodes":"15","size_leaf_vector":"1"}},{"base_weights":[1.4407416E-4,1.5341293E0,-1.5334369E0,1.5360831E0,-5.3411122E-2,-1.5367813E0,6.753022E-2,4.1106024E-1,1.5374572E0,3.9761033E-2,-1.537943E0,-8.1000215E-1,6.2831804E-2,7.6896645E-2,5.5563456E-1,-1.53853E0,-4.6301926E-3,-7.670632E-3,-5.1536273E-2,5.258602E-2,-1.4964598E-2,-2.1314854E-2,-7.693451E-2],"categories":[],"categories_nodes":[],"categories_segments":[],"categories_sizes":[],"default_left":[0,0,0,0,0,0,0,0,0,0,0,0,0,0,0,0,0,0,0,0,0,0,0],"id":7,"left_children":[1,3,5,7,-1,9,-1,11,13,-1,15,17,-1,-1,19,21,-1,-1,-1,-1,-1,-1,-1],"loss_changes":[2.401178E4,2.763379E1,5.132617E1,7.0566406E0,0E0,1.5111328E1,0E0,8.9870825E0,1.3154297E0,0E0,4.0185547E0,2.5967765E-1,0E0,0E0,2.1430974E0,5.3710938E-2,0E0,0E0,0E0,0E0,0E0,0E0,0E0],"parents":[2147483647,0,0,1,1,2,2,3,3,5,5,7,7,8,8,10,10,11,11,14,14,15,15],"right_children":[2,4,6,8,-1,10,-1,12,14,-1,16,18,-1,-1,20,22,-1,-1,-1,-1,-1,-1,-1],"split_conditions":[-1.2086945E0,4.1320792E-1,1.4161107E-1,-7.8267224E-2,-5.3411122E-2,-4.1466013E-1,6.753022E-2,-1.9210654E-1,2.5326124E-1,3.9761033E-2,3.0538568E-2,-1.2120982E0,6.2831804E-2,7.6896645E-2,-3.1424233E-1,-1.2725164E0,-4.6301926E-3,-7.670632E-3,-5.1536273E-2,5.258602E-2,-1.4964598E-2,-2.1314854E-2,-7.693451E-2],"split_indices":[4,2,46,44,0,3,0,46,2,0,44,4,0,0,14,2,0,0,0,0,0,0,0],"split_type":[0,0,0,0,0,0,0,0,0,0,0,0,0,0,0,0,0,0,0,0,0,0,0],"sum_hessian":[1.0204962E4,5.101841E3,5.1031206E3,5.098461E3,3.3797483E0,5.097711E3,5.409624E0,6.6750956E0,5.091786E3,2.155176E0,5.0955557E3,2.6999757E0,3.9751198E0,5.0886523E3,3.1334903E0,5.0933535E3,2.2021875E0,1.2197288E0,1.4802468E0,1.911241E0,1.2222493E0,1.2059146E0,5.092148E3],"tree_param":{"num_deleted":"0","num_feature":"77","num_nodes":"23","size_leaf_vector":"1"}},{"base_weights":[-3.6009133E-3,1.4945687E0,-1.4938942E0,1.4966717E0,-6.202469E-2,-1.4970555E0,6.575049E-2,7.0276916E-1,7.489309E-2,3.9128702E-2,-1.4982144E0,6.637074E-2,-6.1044747E-1,-7.493343E-2,7.3065455E-3,4.6574227E-3,-5.1437076E-2],"categories":[],"categories_nodes":[],"categories_segments":[],"categories_sizes":[],"default_left":[0,0,0,0,0,0,0,0,0,0,0,0,0,0,0,0,0],"id":8,"left_children":[1,3,5,7,-1,9,-1,11,-1,-1,13,-1,15,-1,-1,-1,-1],"loss_changes":[2.2218086E4,3.0424805E1,4.628418E1,3.413086E0,0E0,1.4410156E1,0E0,8.619438E0,0E0,0E0,4.0751953E0,0E0,1.2706302E0,0E0,0E0,0E0,0E0],"parents":[2147483647,0,0,1,1,2,2,3,3,5,5,7,7,10,10,12,12],"right_children":[2,4,6,8,-1,10,-1,12,-1,-1,14,-1,16,-1,-1,-1,-1],"split_conditions":[-1.2086945E0,4.1320792E-1,1.6542727E-1,-7.8267224E-2,-6.202469E-2,-4.1466013E-1,6.575049E-2,-1.2133917E0,7.489309E-2,3.9128702E-2,3.0538568E-2,6.637074E-2,-7.68898E-1,-7.493343E-2,7.3065455E-3,4.6574227E-3,-5.1437076E-2],"split_indices":[4,2,46,44,0,3,0,4,0,0,44,0,0,0,0,0,0],"split_type":[0,0,0,0,0,0,0,0,0,0,0,0,0,0,0,0,0],"sum_hessian":[9.949164E3,4.9614365E3,4.987728E3,4.958114E3,3.3227112E0,4.982623E3,5.104917E0,8.43249E0,4.949681E3,2.145313E0,4.9804775E3,5.7586594E0,2.6738315E0,4.9792515E3,1.2263077E0,1.1976157E0,1.4762156E0],"tree_param":{"num_deleted":"0","num_feature":"77","num_nodes":"17","size_leaf_vector":"1"}},{"base_weights":[2.6334153E-4,-1.0453932E0,1.4431608E0,1.0192467E0,-1.405178E0,1.4521828E0,-6.7663625E-2,-1.2011521E0,1.2166688E0,-9.1559094E-1,-1.4535246E0,7.241158E-1,7.3032424E-2,5.6741633E-2,-1.3181462E0,1.0030572E0,7.3013894E-2,5.112185E-1,-7.2338305E-2,-1.4546834E0,4.454067E-2,1.2818147E0,-1.0663885E0,-7.20423E-2,5.4914635E-2,1.4363431E0,-1.2733054E0,1.1460073E0,-1.3901173E0,-1.2100974E0,-7.298759E-2,1.3307066E0,-0E0,1.7274756E-2,-6.587329E-2,7.301576E-2,-2.9944433E-2,-6.9256425E-2,5.1626157E-2,6.888581E-2,-6.4462185E-2,-1.2877844E-2,-7.148873E-2,-5.592394E-3,-7.212957E-2,6.9141835E-2,2.6779592E-3],"categories":[],"categories_nodes":[],"categories_segments":[],"categories_sizes":[],"default_left":[0,0,0,0,0,0,0,0,0,0,0,0,0,0,0,0,0,0,0,0,0,0,0,0,0,0,0,0,0,0,0,0,0,0,0,0,0,0,0,0,0,0,0,0,0,0,0],"id":9,"left_children":[1,3,5,7,9,11,-1,13,15,17,19,21,-1,-1,23,25,-1,27,-1,29,-1,31,33,-1,-1,35,37,39,41,43,-1,45,-1,-1,-1,-1,-1,-1,-1,-1,-1,-1,-1,-1,-1,-1,-1],"loss_changes":[1.4636758E4,4.1796934E3,1.0481836E2,3.6760138E2,1.11822266E2,2.3770508E1,0E0,2.0279503E1,3.8232544E1,3.2932645E2,1.3192383E1,5.0145206E1,0E0,0E0,2.1153282E1,4.085904E2,0E0,1.4431744E2,0E0,3.3671875E0,0E0,2.470604E0,4.8416176E0,0E0,0E0,1.788794E1,1.8595634E1,5.214988E1,8.111687E-1,2.3860672E1,0E0,2.205803E0,0E0,0E0,0E0,0E0,0E0,0E0,0E0,0E0,0E0,0E0,0E0,0E0,0E0,0E0,0E0],"parents":[2147483647,0,0,1,1,2,2,3,3,4,4,5,5,7,7,8,8,9,9,10,10,11,11,14,14,15,15,17,17,19,19,21,21,22,22,25,25,26,26,27,27,28,28,29,29,31,31],"right_children":[2,4,6,8,10,12,-1,14,16,18,20,22,-1,-1,24,26,-1,28,-1,30,-1,32,34,-1,-1,36,38,40,42,44,-1,46,-1,-1,-1,-1,-1,-1,-1,-1,-1,-1,-1,-1,-1,-1,-1],"split_conditions":[9.327207E-3,-1.194272E0,4.1320792E-1,-7.8267224E-2,-3.1213656E-1,2.224536E-2,-6.7663625E-2,-4.144874E-1,-2.1322711E-1,-3.8474855E-1,-1.7552972E-1,-1.0048257E0,7.3032424E-2,5.6741633E-2,-2.1322711E-1,-3.954537E-1,7.3013894E-2,-4.2858323E-1,-7.2338305E-2,-3.1112534E-1,4.454067E-2,1.9052752E0,-3.8862062E-1,-7.20423E-2,5.4914635E-2,-3.235089E-1,-1.7552972E-1,-3.1133774E-1,-3.8910487E-1,-3.8474855E-1,-7.298759E-2,1.6196144E0,-0E0,1.7274756E-2,-6.587329E-2,7.301576E-2,-2.9944433E-2,-6.9256425E-2,5.1626157E-2,6.888581E-2,-6.4462185E-2,-1.2877844E-2,-7.148873E-2,-5.592394E-3,-7.212957E-2,6.9141835E-2,2.6779592E-3],"split_indices":[44,2,2,44,14,44,0,3,1,3,14,2,0,0,1,3,0,2,0,14,0,45,3,0,0,1,14,1,2,3,0,67,0,0,0,0,0,0,0,0,0,0,0,0,0,0,0],"split_type":[0,0,0,0,0,0,0,0,0,0,0,0,0,0,0,0,0,0,0,0,0,0,0,0,0,0,0,0,0,0,0,0,0,0,0,0,0,0,0,0,0,0,0,0,0,0,0],"sum_hessian":[9.69906E3,5.623766E3,4.0752935E3,8.342539E2,4.789512E3,4.0627026E3,1.2590904E1,6.766277E1,7.665911E2,4.324337E2,4.3570786E3,4.7826942E1,4.0148757E3,2.771451E0,6.489133E1,4.1138834E2,3.552028E2,1.1727264E2,3.1516104E2,4.3553477E3,1.7308793E0,3.6727245E1,1.1099697E1,6.217916E1,2.712164E0,3.4595227E2,6.543606E1,8.82567E1,2.9015936E1,9.36887E1,4.261659E3,3.540109E1,1.3261557E0,1.5589442E0,9.540752E0,3.422527E2,3.6995983E0,6.2831646E1,2.6044137E0,8.102287E1,7.233828E0,1.3204945E0,2.769544E1,1.6702242E1,7.698646E1,3.3858032E1,1.543057E0],"tree_param":{"num_deleted":"0","num_feature":"77","num_nodes":"47","size_leaf_vector":"1"}},{"base_weights":[1.6136657E-3,-1.0127509E0,1.4194562E0,-1.3240591E0,1.4096093E0,1.4245077E0,-1.1426549E0,5.247978E-1,-1.4050487E0,1.4232765E0,-5.2830774E-2,8.0926275E-1,7.1396485E-2,-1.3242118E-2,-6.1282195E-2,-1.3439362E0,8.917727E-1,-1.4176868E0,6.809237E-2,6.927346E-1,7.1400724E-2,1.2876651E0,-9.4702345E-1,-6.9264315E-2,-4.7305042E-1,7.075143E-2,5.186376E-1,-1.2713314E0,-7.143133E-2,-1.9547788E-2,5.082494E-2,6.745738E-2,2.248114E-2,-4.6274466E-3,-5.5366088E-2,-0E0,-3.4293257E-2,-6.6626884E-2,6.993988E-2,-1.2913833E-2,-7.063142E-2],"categories":[],"categories_nodes":[],"categories_segments":[],"categories_sizes":[],"default_left":[0,0,0,0,0,0,0,0,0,0,0,0,0,0,0,0,0,0,0,0,0,0,0,0,0,0,0,0,0,0,0,0,0,0,0,0,0,0,0,0,0],"id":10,"left_children":[1,3,5,7,9,11,13,15,17,19,-1,21,-1,-1,-1,23,25,27,-1,29,-1,31,33,-1,35,-1,37,39,-1,-1,-1,-1,-1,-1,-1,-1,-1,-1,-1,-1,-1],"loss_changes":[1.3536542E4,4.1393564E3,5.2460938E1,7.289131E2,2.2615845E1,6.869629E0,1.2663555E-1,1.4155682E2,1.648418E2,9.5251465E-1,0E0,2.1537346E1,0E0,0E0,0E0,3.817978E-1,3.2611145E1,5.3398438E0,0E0,2.596014E0,0E0,2.1524048E-1,5.582166E-1,0E0,2.5707573E-1,0E0,1.6800034E2,4.7032104E1,0E0,0E0,0E0,0E0,0E0,0E0,0E0,0E0,0E0,0E0,0E0,0E0,0E0],"parents":[2147483647,0,0,1,1,2,2,3,3,4,4,5,5,6,6,7,7,8,8,9,9,11,11,15,15,16,16,17,17,19,19,21,21,22,22,24,24,26,26,27,27],"right_children":[2,4,6,8,10,12,14,16,18,20,-1,22,-1,-1,-1,24,26,28,-1,30,-1,32,34,-1,36,-1,38,40,-1,-1,-1,-1,-1,-1,-1,-1,-1,-1,-1,-1,-1],"split_conditions":[1.3916894E-2,1.00614175E-1,4.1320792E-1,-1.2304791E0,-2.825285E-1,2.224536E-2,-3.266466E-1,-7.8267224E-2,-2.1322711E-1,1.1727485E-1,-5.2830774E-2,-1.0048257E0,7.1396485E-2,-1.3242118E-2,-6.1282195E-2,1.6358039E0,-4.1338018E-1,-3.954537E-1,6.809237E-2,-8.4950465E-1,7.1400724E-2,1.1977708E0,-3.2021803E-1,-6.9264315E-2,-1.2525218E0,7.075143E-2,-2.5954878E-1,-3.1213656E-1,-7.143133E-2,-1.9547788E-2,5.082494E-2,6.745738E-2,2.248114E-2,-4.6274466E-3,-5.5366088E-2,-0E0,-3.4293257E-2,-6.6626884E-2,6.993988E-2,-1.2913833E-2,-7.063142E-2],"split_indices":[44,46,2,2,2,44,1,44,1,46,0,2,0,0,0,29,3,3,0,30,0,17,1,0,2,0,14,14,0,0,0,0,0,0,0,0,0,0,0,0,0],"split_type":[0,0,0,0,0,0,0,0,0,0,0,0,0,0,0,0,0,0,0,0,0,0,0,0,0,0,0,0,0,0,0,0,0,0,0,0,0,0,0,0,0],"sum_hessian":[9.410054E3,5.4856675E3,3.9243862E3,4.861402E3,6.2426556E2,3.917146E3,7.2401786E0,2.0373598E2,4.657666E3,6.21286E2,2.9795623E0,2.3141335E1,3.8940046E3,1.0914702E0,6.1487083E0,3.296003E1,1.7077594E2,4.6370093E3,2.06563E1,5.0880485E0,6.1619794E2,1.8441687E1,4.699648E0,3.07925E1,2.167531E0,6.981397E1,1.00961975E2,3.3128635E2,4.305723E3,1.0516405E0,4.0364075E0,1.6501837E1,1.9398504E0,1.0900888E0,3.6095588E0,1.1142298E0,1.0533012E0,3.2332287E1,6.862969E1,4.098348E1,2.903029E2],"tree_param":{"num_deleted":"0","num_feature":"77","num_nodes":"41","size_leaf_vector":"1"}},{"base_weights":[2.6005297E-4,1.3967471E0,-1.3966159E0,1.3982909E0,-4.2020746E-2,-1.3997456E0,6.0318615E-2,5.512141E-1,1.3994471E0,3.7364475E-2,-1.400458E0,6.032105E-2,-5.564002E-1,7.002856E-2,8.790817E-1,-7.004132E-2,-1.610383E-2,-4.710367E-2,4.5464723E-3,-6.492107E-2,6.4463675E-2],"categories":[],"categories_nodes":[],"categories_segments":[],"categories_sizes":[],"default_left":[0,0,0,0,0,0,0,0,0,0,0,0,0,0,0,0,0,0,0,0,0],"id":11,"left_children":[1,3,5,7,-1,9,-1,11,13,-1,15,-1,17,-1,19,-1,-1,-1,-1,-1,-1],"loss_changes":[1.7789383E4,1.6978516E1,3.884961E1,3.4980469E0,0E0,8.077148E0,0E0,6.5278006E0,1.203125E0,0E0,1.1845703E0,0E0,1.0680023E0,0E0,1.3004468E1,0E0,0E0,0E0,0E0,0E0,0E0],"parents":[2147483647,0,0,1,1,2,2,3,3,5,5,7,7,8,8,10,10,12,12,14,14],"right_children":[2,4,6,8,-1,10,-1,12,14,-1,16,-1,18,-1,20,-1,-1,-1,-1,-1,-1],"split_conditions":[-1.2086945E0,4.1320792E-1,1.6542727E-1,-7.8267224E-2,-4.2020746E-2,-3.3975625E-1,6.0318615E-2,-1.2137232E0,7.331115E-2,3.7364475E-2,3.0538568E-2,6.032105E-2,7.107178E-2,7.002856E-2,-9.1204345E-3,-7.004132E-2,-1.610383E-2,-4.710367E-2,4.5464723E-3,-6.492107E-2,6.4463675E-2],"split_indices":[4,2,46,44,0,1,0,4,2,0,44,0,24,0,44,0,0,0,0,0,0],"split_type":[0,0,0,0,0,0,0,0,0,0,0,0,0,0,0,0,0,0,0,0,0],"sum_hessian":[9.1173955E3,4.559368E3,4.558028E3,4.556644E3,2.7244394E0,4.5530537E3,4.9738355E0,6.980451E0,4.5496636E3,1.1159132E0,4.551938E3,4.3866277E0,2.5938232E0,4.537977E3,1.1686341E1,4.549992E3,1.9458197E0,1.4368933E0,1.15693E0,1.4705799E0,1.0215761E1],"tree_param":{"num_deleted":"0","num_feature":"77","num_nodes":"21","size_leaf_vector":"1"}},{"base_weights":[-2.3130209E-3,-9.727538E-1,1.3626388E0,-1.2697003E0,1.3553553E0,1.3673527E0,-1.071034E0,5.0837505E-1,-1.3496081E0,1.3669697E0,-4.8708927E-2,8.741752E-1,6.862839E-2,-5.798312E-2,-1.0574208E-2,-1.2671937E0,8.543345E-1,-1.361087E0,6.504511E-2,6.844373E-2,9.657335E-3,1.2757852E0,-8.493964E-1,-0E0,-1.3082741E0,1.0064139E0,-5.0904727E-1,-1.2241874E0,-6.859294E-2,6.361685E-1,6.644913E-2,1.9009028E-2,-6.141085E-2,-6.6511594E-2,-1.4290859E-2,6.799107E-2,3.5657056E-2,-6.314077E-2,5.638215E-2,-2.2316398E-2,-6.708529E-2,-9.982895E-3,4.8534613E-2],"categories":[],"categories_nodes":[],"categories_segments":[],"categories_sizes":[],"default_left":[0,0,0,0,0,0,0,0,0,0,0,0,0,0,0,0,0,0,0,0,0,0,0,0,0,0,0,0,0,0,0,0,0,0,0,0,0,0,0,0,0,0,0],"id":12,"left_children":[1,3,5,7,9,11,13,15,17,19,-1,21,-1,-1,-1,23,25,27,-1,-1,-1,29,31,-1,33,35,37,39,-1,41,-1,-1,-1,-1,-1,-1,-1,-1,-1,-1,-1,-1,-1],"loss_changes":[1.1769283E4,3.5918193E3,4.384961E1,6.552295E2,1.7276855E1,8.054199E0,2.0096493E-1,1.23144E2,1.3590186E2,8.8830566E-1,0E0,2.9865835E1,0E0,0E0,0E0,1.638279E0,3.518934E1,4.5341797E0,0E0,0E0,0E0,1.1897278E-1,4.4640856E0,0E0,1.6991425E-1,1.4436829E1,2.285112E1,2.9406097E1,0E0,1.5801345E0,0E0,0E0,0E0,0E0,0E0,0E0,0E0,0E0,0E0,0E0,0E0,0E0,0E0],"parents":[2147483647,0,0,1,1,2,2,3,3,4,4,5,5,6,6,7,7,8,8,9,9,11,11,15,15,16,16,17,17,21,21,22,22,24,24,25,25,26,26,27,27,29,29],"right_children":[2,4,6,8,10,12,14,16,18,20,-1,22,-1,-1,-1,24,26,28,-1,-1,-1,30,32,-1,34,36,38,40,-1,42,-1,-1,-1,-1,-1,-1,-1,-1,-1,-1,-1,-1,-1],"split_conditions":[1.3916894E-2,1.00614175E-1,4.1320792E-1,-1.2296666E0,-2.825285E-1,3.0538568E-2,4.5456478E-1,-7.8267224E-2,-2.1322711E-1,1.4552791E0,-4.8708927E-2,-1.0048257E0,6.862839E-2,-5.798312E-2,-1.0574208E-2,-4.0910447E-1,2.8615588E-1,-3.947431E-1,6.504511E-2,6.844373E-2,9.657335E-3,-2.4203432E-1,-3.0693868E-1,-0E0,-2.5936857E-1,-4.1180483E-1,-2.5733674E-1,-3.1074876E-1,-6.859294E-2,-8.3010453E-1,6.644913E-2,1.9009028E-2,-6.141085E-2,-6.6511594E-2,-1.4290859E-2,6.799107E-2,3.5657056E-2,-6.314077E-2,5.638215E-2,-2.2316398E-2,-6.708529E-2,-9.982895E-3,4.8534613E-2],"split_indices":[44,46,2,2,2,44,11,44,1,0,0,2,0,0,0,3,0,3,0,0,0,46,13,0,13,3,13,13,0,28,0,0,0,0,0,0,0,0,0,0,0,0,0],"split_type":[0,0,0,0,0,0,0,0,0,0,0,0,0,0,0,0,0,0,0,0,0,0,0,0,0,0,0,0,0,0,0,0,0,0,0,0,0,0,0,0,0,0,0],"sum_hessian":[8.883155E3,5.1920913E3,3.6910642E3,4.605203E3,5.868884E2,3.684407E3,6.6572237E0,1.9777536E2,4.4074277E3,5.844308E2,2.4576764E0,4.0518917E1,3.6438882E3,5.6129775E0,1.044246E0,3.1770025E1,1.6600533E2,4.3889443E3,1.8483368E1,5.83233E2,1.1978147E0,3.311954E1,7.3993764E0,1.0685053E0,3.070152E1,1.496479E2,1.6357426E1,3.291922E2,4.059752E3,3.682427E0,2.9437115E1,1.6797317E0,5.7196445E0,2.9665623E1,1.0358984E0,6.606222E1,8.358569E1,1.1397778E1,4.959648E0,4.394787E1,2.8524432E2,1.0823472E0,2.6000795E0],"tree_param":{"num_deleted":"0","num_feature":"77","num_nodes":"43","size_leaf_vector":"1"}},{"base_weights":[-8.078037E-3,1.3450469E0,-1.345737E0,1.346557E0,-3.881746E-2,5.6953248E-2,-1.3484457E0,1.3480667E0,7.414462E-1,-1.349339E0,4.165152E-2,6.681179E-1,6.7451715E-2,-6.5309964E-2,6.182122E-2,-1.5488206E-2,-6.7475796E-2,-3.8206023E-1,5.861784E-2,-4.0145274E-2,8.274271E-3],"categories":[],"categories_nodes":[],"categories_segments":[],"categories_sizes":[],"default_left":[0,0,0,0,0,0,0,0,0,0,0,0,0,0,0,0,0,0,0,0,0],"id":13,"left_children":[1,3,5,7,-1,-1,9,11,13,15,-1,17,-1,-1,-1,-1,-1,19,-1,-1,-1],"loss_changes":[1.5518683E4,1.4756836E1,3.0575684E1,2.6816406E0,0E0,0E0,9.569336E0,1.6928711E0,1.4771374E1,2.0898438E-1,0E0,4.85022E0,0E0,0E0,0E0,0E0,0E0,9.6585584E-1,0E0,0E0,0E0],"parents":[2147483647,0,0,1,1,2,2,3,3,6,6,7,7,8,8,9,9,11,11,17,17],"right_children":[2,4,6,8,-1,-1,10,12,14,16,-1,18,-1,-1,-1,-1,-1,20,-1,-1,-1],"split_conditions":[-1.2086945E0,4.1320792E-1,-4.147307E-1,7.331115E-2,-3.881746E-2,5.6953248E-2,-2.1322711E-1,-7.8267224E-2,-9.1204345E-3,-1.2725164E0,4.165152E-2,-1.7357701E-1,6.7451715E-2,-6.5309964E-2,6.182122E-2,-1.5488206E-2,-6.7475796E-2,-6.1329615E-1,5.861784E-2,-4.0145274E-2,8.274271E-3],"split_indices":[4,2,3,2,0,0,1,44,44,2,0,46,0,0,0,0,0,6,0,0,0],"split_type":[0,0,0,0,0,0,0,0,0,0,0,0,0,0,0,0,0,0,0,0,0],"sum_hessian":[8.571765E3,4.261208E3,4.310556E3,4.258589E3,2.6191242E0,4.1967325E0,4.3063594E3,4.2466016E3,1.1987492E1,4.305024E3,1.3355957E0,7.164208E0,4.239437E3,1.9752529E0,1.00122385E1,1.126803E0,4.303897E3,2.3382728E0,4.825935E0,1.1616709E0,1.176602E0],"tree_param":{"num_deleted":"0","num_feature":"77","num_nodes":"21","size_leaf_vector":"1"}},{"base_weights":[-1.3859852E-3,1.3216598E0,-1.3216102E0,1.3238146E0,-2.1885584E-1,-1.3248111E0,5.762756E-2,5.436364E-1,1.3251055E0,5.1358372E-2,-5.746534E-2,4.6929177E-2,-1.3261188E0,-5.10315E-1,5.747686E-2,6.629645E-2,8.148771E-1,-6.633039E-2,-2.522939E-1,9.750541E-3,-4.699088E-2,-4.1091193E-2,5.7950687E-2,-3.3493068E-2,1.2539524E-2],"categories":[],"categories_nodes":[],"categories_segments":[],"categories_sizes":[],"default_left":[0,0,0,0,0,0,0,0,0,0,0,0,0,0,0,0,0,0,0,0,0,0,0,0,0],"id":14,"left_children":[1,3,5,7,9,11,-1,13,15,-1,-1,-1,17,19,-1,-1,21,-1,23,-1,-1,-1,-1,-1,-1],"loss_changes":[1.4554221E4,1.4214844E1,3.457373E1,3.2783203E0,8.85179E0,1.3613281E1,0E0,6.1993337E0,4.477539E-1,0E0,0E0,0E0,1.6923828E0,1.4101733E0,0E0,0E0,6.3226447E0,0E0,8.869242E-1,0E0,0E0,0E0,0E0,0E0,0E0],"parents":[2147483647,0,0,1,1,2,2,3,3,4,4,5,5,7,7,8,8,12,12,13,13,16,16,18,18],"right_children":[2,4,6,8,10,12,-1,14,16,-1,-1,-1,18,20,-1,-1,22,-1,24,-1,-1,-1,-1,-1,-1],"split_conditions":[-1.2086945E0,2.5326124E-1,1.6542727E-1,-7.8267224E-2,-1.2127409E0,-4.1466013E-1,5.762756E-2,-2.7043821E-2,7.331115E-2,5.1358372E-2,-5.746534E-2,4.6929177E-2,-9.472474E-2,-5.4636383E-1,5.747686E-2,6.629645E-2,4.173892E-1,-6.633039E-2,-5.2984846E-1,9.750541E-3,-4.699088E-2,-4.1091193E-2,5.7950687E-2,-3.3493068E-2,1.2539524E-2],"split_indices":[4,2,46,44,4,3,0,46,2,0,0,0,3,18,0,0,44,0,12,0,0,0,0,0,0],"split_type":[0,0,0,0,0,0,0,0,0,0,0,0,0,0,0,0,0,0,0,0,0,0,0,0,0],"sum_hessian":[8.330327E3,4.160679E3,4.1696484E3,4.1550728E3,5.6062512E0,4.164765E3,4.883096E0,7.6891203E0,4.147384E3,2.3063104E0,3.2999408E0,1.9467654E0,4.1628184E3,2.8041232E0,4.884997E0,4.1389097E3,8.474355E0,4.1605957E3,2.222817E0,1.1797992E0,1.6243238E0,1.1806366E0,7.293718E0,1.1421123E0,1.0807048E0],"tree_param":{"num_deleted":"0","num_feature":"77","num_nodes":"25","size_leaf_vector":"1"}},{"base_weights":[1.7758297E-4,1.3016133E0,-1.3011498E0,6.5102786E-2,6.540327E-3,-1.3040538E0,5.520448E-2,3.37767E-2,-1.3047602E0,-6.525279E-2,-4.7091123E-1,-3.4934465E-2,-0E0],"categories":[],"categories_nodes":[],"categories_segments":[],"categories_sizes":[],"default_left":[0,0,0,0,0,0,0,0,0,0,0,0,0],"id":15,"left_children":[1,3,5,-1,-1,7,-1,-1,9,-1,11,-1,-1],"loss_changes":[1.3618356E4,1.7680664E0,2.9543457E1,0E0,0E0,6.560547E0,0E0,0E0,1.977539E-1,0E0,3.153134E-1,0E0,0E0],"parents":[2147483647,0,0,1,1,2,2,5,5,8,8,10,10],"right_children":[2,4,6,-1,-1,8,-1,-1,10,-1,12,-1,-1],"split_conditions":[-1.2086945E0,2.118596E0,1.6542727E-1,6.5102786E-2,6.540327E-3,-3.396906E-1,5.520448E-2,3.37767E-2,1.1727485E-1,-6.525279E-2,-6.373256E-1,-3.4934465E-2,-0E0],"split_indices":[4,0,46,0,0,1,0,0,46,0,39,0,0],"split_type":[0,0,0,0,0,0,0,0,0,0,0,0,0],"sum_hessian":[8.039098E3,4.01942E3,4.019678E3,4.0177046E3,1.7153221E0,4.0153296E3,4.3485036E0,1.0410008E0,4.0142886E3,4.0121812E3,2.1073606E0,1.0574806E0,1.04988E0],"tree_param":{"num_deleted":"0","num_feature":"77","num_nodes":"13","size_leaf_vector":"1"}},{"base_weights":[-1.1174484E-3,1.2811935E0,-1.2811153E0,1.2831496E0,-5.127677E-1,5.624185E-2,-1.2843664E0,6.422688E-2,7.5770307E-1,3.7980944E-2,-5.4109782E-2,-1.2857004E0,4.6011277E-2,1.1035514E0,-5.5427194E-2,-1.2861583E0,-2.6001763E-1,5.833472E-2,1.1434441E-2,-1.1974277E-2,-6.431805E-2,-3.306757E-2,1.0481167E-2],"categories":[],"categories_nodes":[],"categories_segments":[],"categories_sizes":[],"default_left":[0,0,0,0,0,0,0,0,0,0,0,0,0,0,0,0,0,0,0,0,0,0,0],"id":16,"left_children":[1,3,5,7,9,-1,11,-1,13,-1,-1,15,-1,17,-1,19,21,-1,-1,-1,-1,-1,-1],"loss_changes":[1.273909E4,1.4340332E1,3.1842773E1,1.6479492E0,4.3913155E0,0E0,1.2629883E1,0E0,9.505049E0,0E0,0E0,1.331543E0,0E0,2.2185993E-1,0E0,3.623047E-1,7.6450706E-1,0E0,0E0,0E0,0E0,0E0,0E0],"parents":[2147483647,0,0,1,1,2,2,3,3,4,4,6,6,8,8,11,11,13,13,15,15,16,16],"right_children":[2,4,6,8,10,-1,12,-1,14,-1,-1,16,-1,18,-1,20,22,-1,-1,-1,-1,-1,-1],"split_conditions":[-1.2086945E0,3.3881864E-1,-4.1466013E-1,5.0443355E-2,-1.2127409E0,5.624185E-2,7.6750955E-3,6.422688E-2,-2.943966E-1,3.7980944E-2,-5.4109782E-2,1.1727485E-1,4.6011277E-2,1.0704936E0,-5.5427194E-2,-1.2725164E0,-1.899439E-1,5.833472E-2,1.1434441E-2,-1.1974277E-2,-6.431805E-2,-3.306757E-2,1.0481167E-2],"split_indices":[4,2,3,2,4,0,3,0,3,0,0,46,0,42,0,2,9,0,0,0,0,0,0],"split_type":[0,0,0,0,0,0,0,0,0,0,0,0,0,0,0,0,0,0,0,0,0,0,0],"sum_hessian":[7.759324E3,3.87612E3,3.8832039E3,3.8722385E3,3.881771E0,4.7332315E0,3.8784707E3,3.8604065E3,1.1831918E1,1.0425577E0,2.8392134E0,3.876587E3,1.8836541E0,1.0372056E1,1.4598618E0,3.874506E3,2.0809164E0,9.25612E0,1.1159365E0,1.0745784E0,3.8734314E3,1.016761E0,1.0641553E0],"tree_param":{"num_deleted":"0","num_feature":"77","num_nodes":"23","size_leaf_vector":"1"}},{"base_weights":[6.1010534E-4,1.2645112E0,-1.2634684E0,1.2661277E0,-3.7664387E-2,5.1586945E-2,-1.2659906E0,5.059181E-1,1.2675734E0,-1.2679193E0,5.0927192E-2,5.5748623E-2,-4.563879E-1,6.338775E-2,1.2828519E-2,-1.02495E-2,-6.341266E-2,2.1459833E-2,-5.0598543E-2],"categories":[],"categories_nodes":[],"categories_segments":[],"categories_sizes":[],"default_left":[0,0,0,0,0,0,0,0,0,0,0,0,0,0,0,0,0,0,0],"id":17,"left_children":[1,3,5,7,-1,-1,9,11,13,15,-1,-1,17,-1,-1,-1,-1,-1,-1],"loss_changes":[1.1922284E4,1.3175293E1,2.2927734E1,3.2792969E0,0E0,0E0,1.7738281E1,5.774929E0,2.0605469E-1,9.145508E-1,0E0,0E0,2.5024557E0,0E0,0E0,0E0,0E0,0E0,0E0],"parents":[2147483647,0,0,1,1,2,2,3,3,6,6,7,7,8,8,9,9,12,12],"right_children":[2,4,6,8,-1,-1,10,12,14,16,-1,-1,18,-1,-1,-1,-1,-1,-1],"split_conditions":[-1.2086945E0,4.1320792E-1,-3.396906E-1,-7.8267224E-2,-3.7664387E-2,5.1586945E-2,4.3362968E-2,-1.2018043E0,3.6440533E-1,-8.9225155E-1,5.0927192E-2,5.5748623E-2,-3.0309245E-1,6.338775E-2,1.2828519E-2,-1.02495E-2,-6.341266E-2,2.1459833E-2,-5.0598543E-2],"split_indices":[4,2,1,44,0,0,44,2,2,0,0,0,1,0,0,0,0,0,0],"split_type":[0,0,0,0,0,0,0,0,0,0,0,0,0,0,0,0,0,0,0],"sum_hessian":[7.4602925E3,3.7304473E3,3.7298452E3,3.727883E3,2.5643654E0,3.6027522E0,3.7262424E3,7.8726153E0,3.7200105E3,3.7235876E3,2.6548388E0,4.7876973E0,3.0849178E0,3.718989E3,1.0214182E0,1.456391E0,3.7221313E3,1.2075725E0,1.8773452E0],"tree_param":{"num_deleted":"0","num_feature":"77","num_nodes":"19","size_leaf_vector":"1"}},{"base_weights":[-3.015504E-3,1.2465221E0,-1.2464933E0,1.2493633E0,-4.1162047E-1,-1.249821E0,5.4486092E-2,4.8477492E-1,1.2506754E0,4.3272674E-2,-6.0140617E-2,4.331347E-2,-1.2511518E0,5.4531306E-2,-5.8675414E-1,6.256863E-2,7.3738486E-1,-6.258904E-2,-0E0,-4.4482026E-2,2.4665223E-4,5.2532565E-2,-2.7202165E-2],"categories":[],"categories_nodes":[],"categories_segments":[],"categories_sizes":[],"default_left":[0,0,0,0,0,0,0,0,0,0,0,0,0,0,0,0,0,0,0,0,0,0,0],"id":18,"left_children":[1,3,5,7,9,11,-1,13,15,-1,-1,-1,17,-1,19,-1,21,-1,-1,-1,-1,-1,-1],"loss_changes":[1.1232001E4,1.758496E1,2.9544922E1,2.831543E0,8.005942E0,1.1312988E1,0E0,5.838636E0,1.6357422E-1,0E0,0E0,0E0,2.7954102E0,0E0,7.120359E-1,0E0,3.6335115E0,0E0,0E0,0E0,0E0,0E0,0E0],"parents":[2147483647,0,0,1,1,2,2,3,3,4,4,5,5,7,7,8,8,12,12,14,14,16,16],"right_children":[2,4,6,8,10,12,-1,14,16,-1,-1,-1,18,-1,20,-1,22,-1,-1,-1,-1,-1,-1],"split_conditions":[-1.2086945E0,2.3001046E-1,1.6542727E-1,-7.8267224E-2,-1.2129828E0,-4.147307E-1,5.4486092E-2,-1.2137232E0,7.331115E-2,4.3272674E-2,-6.0140617E-2,4.331347E-2,3.0538568E-2,5.4531306E-2,-5.2244857E-2,6.256863E-2,-3.0118808E-1,-6.258904E-2,-0E0,-4.4482026E-2,2.4665223E-4,5.2532565E-2,-2.7202165E-2],"split_indices":[4,2,46,44,4,3,0,4,2,0,0,0,44,0,67,0,3,0,0,0,0,0,0],"split_type":[0,0,0,0,0,0,0,0,0,0,0,0,0,0,0,0,0,0,0,0,0,0,0],"sum_hessian":[7.2268594E3,3.6046052E3,3.6222542E3,3.5987454E3,5.859814E0,3.6176091E3,4.644906E0,6.9304094E0,3.591815E3,2.157351E0,3.702463E0,1.8181183E0,3.615791E3,4.475454E0,2.4549556E0,3.5853137E3,6.5013423E0,3.613941E3,1.8500597E0,1.4024696E0,1.0524858E0,5.4316235E0,1.0697191E0],"tree_param":{"num_deleted":"0","num_feature":"77","num_nodes":"23","size_leaf_vector":"1"}},{"base_weights":[2.6271148E-3,1.2313384E0,-1.2317547E0,1.2333658E0,-4.45254E-2,4.8575263E-2,-1.2352717E0,3.5644236E-1,1.2348864E0,-6.183787E-2,4.458155E-2,-5.548354E-1,5.0984967E-2,6.1801076E-2,6.565452E-1,5.8522616E-3,-4.6545036E-2,-5.5388805E-2,5.4400224E-2],"categories":[],"categories_nodes":[],"categories_segments":[],"categories_sizes":[],"default_left":[0,0,0,0,0,0,0,0,0,0,0,0,0,0,0,0,0,0,0],"id":19,"left_children":[1,3,5,7,-1,-1,9,11,13,-1,-1,15,-1,-1,17,-1,-1,-1,-1],"loss_changes":[1.052394E4,1.6092773E1,2.8047363E1,4.0336914E0,0E0,0E0,1.2059082E1,5.1659994E0,1.2753906E0,0E0,0E0,1.1398327E0,0E0,0E0,8.129543E0,0E0,0E0,0E0,0E0],"parents":[2147483647,0,0,1,1,2,2,3,3,6,6,7,7,8,8,11,11,14,14],"right_children":[2,4,6,8,-1,-1,10,12,14,-1,-1,16,-1,-1,18,-1,-1,-1,-1],"split_conditions":[-1.2086945E0,3.3881864E-1,-4.1466013E-1,-7.8267224E-2,-4.45254E-2,4.8575263E-2,7.6750955E-3,-2.7043821E-2,7.331115E-2,-6.183787E-2,4.458155E-2,-1.2121857E0,5.0984967E-2,6.1801076E-2,-9.1204345E-3,5.8522616E-3,-4.6545036E-2,-5.5388805E-2,5.4400224E-2],"split_indices":[4,2,3,44,0,0,3,46,2,0,0,4,0,0,44,0,0,0,0],"split_type":[0,0,0,0,0,0,0,0,0,0,0,0,0,0,0,0,0,0,0],"sum_hessian":[6.936715E3,3.4763843E3,3.4603308E3,3.473531E3,2.8530684E0,5.030853E0,3.4553E3,6.5341864E0,3.4669968E3,3.4533533E3,1.946835E0,2.7578094E0,3.7763772E0,3.4588982E3,8.098735E0,1.1414104E0,1.6163989E0,1.2378092E0,6.860925E0],"tree_param":{"num_deleted":"0","num_feature":"77","num_nodes":"19","size_leaf_vector":"1"}},{"base_weights":[2.6205326E-3,1.2173191E0,-1.2170209E0,1.2196116E0,-3.454776E-1,5.3294837E-2,-1.220553E0,6.1034687E-2,7.071499E-1,4.3271925E-2,-5.255754E-2,-1.2219142E0,4.22345E-2,5.3860825E-2,-4.921404E-2,-1.2222761E0,-1.1962886E-2,-1.7197987E-2,-6.112623E-2],"categories":[],"categories_nodes":[],"categories_segments":[],"categories_sizes":[],"default_left":[0,0,0,0,0,0,0,0,0,0,0,0,0,0,0,0,0,0,0],"id":20,"left_children":[1,3,5,7,9,-1,11,-1,13,-1,-1,15,-1,-1,-1,17,-1,-1,-1],"loss_changes":[9.88661E3,1.2487305E1,2.8167969E1,7.9541016E-1,5.7244463E0,0E0,1.041748E1,0E0,7.0829825E0,0E0,0E0,7.4316406E-1,0E0,0E0,0E0,1.4746094E-1,0E0,0E0,0E0],"parents":[2147483647,0,0,1,1,2,2,3,3,4,4,6,6,8,8,11,11,15,15],"right_children":[2,4,6,8,10,-1,12,-1,14,-1,-1,16,-1,-1,-1,18,-1,-1,-1],"split_conditions":[-1.2086945E0,2.758437E-1,-4.1466013E-1,5.0443355E-2,-1.2127409E0,5.3294837E-2,7.6750955E-3,6.1034687E-2,-2.943966E-1,4.3271925E-2,-5.255754E-2,1.1727485E-1,4.22345E-2,5.3860825E-2,-4.921404E-2,-1.2719395E0,-1.1962886E-2,-1.7197987E-2,-6.112623E-2],"split_indices":[4,2,3,2,4,0,3,0,3,0,0,46,0,0,0,2,0,0,0],"split_type":[0,0,0,0,0,0,0,0,0,0,0,0,0,0,0,0,0,0,0],"sum_hessian":[6.6713936E3,3.3425117E3,3.3288818E3,3.337899E3,4.6127644E0,4.6342835E0,3.3242476E3,3.329292E3,8.606968E0,1.5628486E0,3.0499158E0,3.3225146E3,1.7329743E0,7.4083548E0,1.1986127E0,3.320946E3,1.5687076E0,1.4447553E0,3.3195012E3],"tree_param":{"num_deleted":"0","num_feature":"77","num_nodes":"19","size_leaf_vector":"1"}},{"base_weights":[1.4236782E-3,-8.5656494E-1,1.1991477E0,-1.1187474E0,1.2000221E0,5.827491E-1,6.0382355E-2,-1.1629238E0,5.9893936E-2,5.8943737E-1,6.0318865E-2,-1.9901843E-1,5.7968523E-2,1.1696734E0,-1.1956432E0,-1.3295824E-2,4.4397883E-2,-5.396761E-1,4.5497734E-2,5.9297837E-2,1.1221078E-2,-1.035233E0,-1.2072699E0,3.832462E-2,-5.383993E-2,-4.8023867E-3,-5.8798283E-2,-6.0386598E-2,-1.4742854E-2],"categories":[],"categories_nodes":[],"categories_segments":[],"categories_sizes":[],"default_left":[0,0,0,0,0,0,0,0,0,0,0,0,0,0,0,0,0,0,0,0,0,0,0,0,0,0,0,0,0],"id":21,"left_children":[1,3,5,7,9,11,-1,13,-1,15,-1,17,-1,19,21,-1,-1,23,-1,-1,-1,25,27,-1,-1,-1,-1,-1,-1],"loss_changes":[6.5967817E3,2.0179861E3,1.3154053E1,3.409287E2,7.5201416E-1,1.7697384E1,0E0,2.4991895E2,0E0,1.9524801E0,0E0,6.928162E0,0E0,2.9323578E-1,4.5161133E0,0E0,0E0,1.0542827E1,0E0,0E0,0E0,2.9453476E1,7.529297E-1,0E0,0E0,0E0,0E0,0E0,0E0],"parents":[2147483647,0,0,1,1,2,2,3,3,4,4,5,5,7,7,9,9,11,11,13,13,14,14,17,17,21,21,22,22],"right_children":[2,4,6,8,10,12,-1,14,-1,16,-1,18,-1,20,22,-1,-1,24,-1,-1,-1,26,28,-1,-1,-1,-1,-1,-1],"split_conditions":[1.3916894E-2,1.1727485E-1,3.0538568E-2,-1.8477549E-1,1.4161107E-1,1.00614175E-1,6.0382355E-2,-4.1466013E-1,5.9893936E-2,-8.281455E-1,6.0318865E-2,-2.6375544E-1,5.7968523E-2,2.2223642E0,-3.966278E-1,-1.3295824E-2,4.4397883E-2,-3.1174058E-1,4.5497734E-2,5.9297837E-2,1.1221078E-2,-3.1253096E-1,-9.472474E-2,3.832462E-2,-5.383993E-2,-4.8023867E-3,-5.8798283E-2,-6.0386598E-2,-1.4742854E-2],"split_indices":[44,46,44,13,46,46,0,3,0,19,0,13,0,68,3,0,0,13,0,0,0,14,3,0,0,0,0,0,0],"split_type":[0,0,0,0,0,0,0,0,0,0,0,0,0,0,0,0,0,0,0,0,0,0,0,0,0,0,0,0,0],"sum_hessian":[6.417358E3,3.7390754E3,2.6782822E3,3.3167473E3,4.2232825E2,3.7534245E1,2.640748E3,3.2552139E3,6.153352E1,5.478226E0,4.1685004E2,1.613724E1,2.1397003E1,4.4506363E1,3.2107075E3,1.3588705E0,4.1193557E0,1.2806752E1,3.3304875E0,4.3398327E1,1.1080348E0,2.2365579E2,2.9870515E3,3.553115E0,9.253637E0,2.9458199E1,1.941976E2,2.985107E3,1.9447931E0],"tree_param":{"num_deleted":"0","num_feature":"77","num_nodes":"29","size_leaf_vector":"1"}},{"base_weights":[-7.0502884E-3,-8.476082E-1,1.1867497E0,-1.1045454E0,1.1769593E0,1.1908346E0,-4.8403893E-2,4.26259E-1,-1.1734455E0,1.1890486E0,-4.018579E-2,6.125495E-1,5.971352E-2,-1.0729359E0,7.275666E-1,-1.1843362E0,5.5680245E-2,4.2733374E-1,5.9634972E-2,1.0435079E0,-7.5774235E-1,-2.895589E-4,-5.580643E-2,9.810603E-1,1.07351325E-1,-9.514607E-1,-5.96078E-2,3.5093438E-2,-3.892185E-3,1.6125103E-2,5.4823752E-2,-8.595304E-3,-4.2537324E-2,5.90666E-2,3.4100518E-2,-5.582757E-2,5.683772E-2,8.0595736E-4,-5.9204396E-2],"categories":[],"categories_nodes":[],"categories_segments":[],"categories_sizes":[],"default_left":[0,0,0,0,0,0,0,0,0,0,0,0,0,0,0,0,0,0,0,0,0,0,0,0,0,0,0,0,0,0,0,0,0,0,0,0,0,0,0],"id":22,"left_children":[1,3,5,7,9,11,-1,13,15,17,-1,19,-1,21,23,25,-1,27,-1,29,31,-1,-1,33,35,37,-1,-1,-1,-1,-1,-1,-1,-1,-1,-1,-1,-1,-1],"loss_changes":[6.1838022E3,1.88246E3,2.3587646E1,3.3910278E2,1.0756714E1,4.137451E0,0E0,6.3494923E1,7.783496E1,4.564209E-1,0E0,1.0998812E1,0E0,9.6889687E-1,1.8073189E1,4.2197266E0,0E0,6.1966205E-1,0E0,2.3469925E-2,4.7342777E-3,0E0,0E0,3.9389267E0,4.534825E1,2.3704132E1,0E0,0E0,0E0,0E0,0E0,0E0,0E0,0E0,0E0,0E0,0E0,0E0,0E0],"parents":[2147483647,0,0,1,1,2,2,3,3,4,4,5,5,7,7,8,8,9,9,11,11,13,13,14,14,15,15,17,17,19,19,20,20,23,23,24,24,25,25],"right_children":[2,4,6,8,10,12,-1,14,16,18,-1,20,-1,22,24,26,-1,28,-1,30,32,-1,-1,34,36,38,-1,-1,-1,-1,-1,-1,-1,-1,-1,-1,-1,-1,-1],"split_conditions":[1.3916894E-2,1.00614175E-1,4.1320792E-1,-1.2304791E0,-2.825285E-1,2.224536E-2,-4.8403893E-2,-7.8267224E-2,-2.1322711E-1,1.1727485E-1,-4.018579E-2,-1.0048257E0,5.971352E-2,-8.852128E-1,-4.5173612E-1,-3.146115E-1,5.5680245E-2,8.704087E-1,5.9634972E-2,-1.0804039E0,-7.68099E-1,-2.895589E-4,-5.580643E-2,-4.1180483E-1,-1.7552972E-1,-3.874666E-1,-5.96078E-2,3.5093438E-2,-3.892185E-3,1.6125103E-2,5.4823752E-2,-8.595304E-3,-4.2537324E-2,5.90666E-2,3.4100518E-2,-5.582757E-2,5.683772E-2,8.0595736E-4,-5.9204396E-2],"split_indices":[44,46,2,2,2,44,0,44,1,46,0,2,0,0,0,14,0,31,0,6,35,0,0,3,14,3,0,0,0,0,0,0,0,0,0,0,0,0,0],"split_type":[0,0,0,0,0,0,0,0,0,0,0,0,0,0,0,0,0,0,0,0,0,0,0,0,0,0,0,0,0,0,0,0,0,0,0,0,0,0,0],"sum_hessian":[6.160523E3,3.6153318E3,2.5451914E3,3.2086294E3,4.0670227E2,2.5408684E3,4.3229523E0,1.3791127E2,3.070718E3,4.0468237E2,2.019886E0,1.623769E1,2.5246309E3,2.259485E1,1.1531643E2,3.0566882E3,1.4029786E1,2.624108E0,4.020583E2,1.2589677E1,3.6480134E0,1.0131272E0,2.1581722E1,8.133161E1,3.3984814E1,1.0370808E2,2.9529802E3,1.5761565E0,1.0479515E0,1.4759014E0,1.1113775E1,1.037343E0,2.6106703E0,4.674328E1,3.4588333E1,1.544261E1,1.8542204E1,2.0198036E1,8.351005E1],"tree_param":{"num_deleted":"0","num_feature":"77","num_nodes":"39","size_leaf_vector":"1"}},{"base_weights":[-1.777438E-3,1.1803771E0,-1.1805083E0,1.1828922E0,-2.400149E-1,-1.1837678E0,5.0145067E-2,5.9182692E-2,6.9743747E-1,4.4223346E-2,-5.0859075E-2,2.8512707E-2,-1.1851184E0,4.9544495E-2,-2.5241584E-2,-1.1856892E0,-8.722356E-3,-1.2900205E-2,-5.929799E-2],"categories":[],"categories_nodes":[],"categories_segments":[],"categories_sizes":[],"default_left":[0,0,0,0,0,0,0,0,0,0,0,0,0,0,0,0,0,0,0],"id":23,"left_children":[1,3,5,7,9,11,-1,-1,13,-1,-1,-1,15,-1,-1,17,-1,-1,-1],"loss_changes":[8.269413E3,1.0962891E1,2.2353516E1,8.0078125E-2,6.1545897E0,7.7685547E0,0E0,0E0,3.1150804E0,0E0,0E0,0E0,1.3686523E0,0E0,0E0,2.9296875E-1,0E0,0E0,0E0],"parents":[2147483647,0,0,1,1,2,2,3,3,4,4,5,5,8,8,12,12,15,15],"right_children":[2,4,6,8,10,12,-1,-1,14,-1,-1,-1,16,-1,-1,18,-1,-1,-1],"split_conditions":[-1.2086945E0,2.5326124E-1,1.6542727E-1,7.331115E-2,-1.2127409E0,-4.1466013E-1,5.0145067E-2,5.9182692E-2,-1.2128035E0,4.4223346E-2,-5.0859075E-2,2.8512707E-2,-9.472474E-2,4.9544495E-2,-2.5241584E-2,-1.2719395E0,-8.722356E-3,-1.2900205E-2,-5.929799E-2],"split_indices":[4,2,46,2,4,3,0,0,4,0,0,0,3,0,0,2,0,0,0],"split_type":[0,0,0,0,0,0,0,0,0,0,0,0,0,0,0,0,0,0,0],"sum_hessian":[5.9325225E3,2.9619165E3,2.9706062E3,2.9569185E3,4.9979367E0,2.966681E3,3.9252071E0,2.9506448E3,6.27375E0,1.9335483E0,3.0643883E0,1.9017531E0,2.9647793E3,5.2510543E0,1.0226952E0,2.9628337E3,1.9453733E0,1.2499238E0,2.961584E3],"tree_param":{"num_deleted":"0","num_feature":"77","num_nodes":"19","size_leaf_vector":"1"}},{"base_weights":[-3.2402305E-3,1.1694899E0,-1.1699209E0,1.1712457E0,-3.1529676E-2,-1.1732913E0,4.955709E-2,5.8652725E-2,5.665464E-1,3.5994206E-2,-1.1745142E0,5.1942546E-2,-6.3121563E-1,-5.8764942E-2,-1.5610605E-1,3.4705352E-3,-5.1054116E-2,-3.366736E-2,2.496808E-2],"categories":[],"categories_nodes":[],"categories_segments":[],"categories_sizes":[],"default_left":[0,0,0,0,0,0,0,0,0,0,0,0,0,0,0,0,0,0,0],"id":24,"left_children":[1,3,5,7,-1,9,-1,-1,11,-1,13,-1,15,-1,17,-1,-1,-1,-1],"loss_changes":[7.802901E3,9.781006E0,2.200415E1,2.2697754E0,0E0,7.5009766E0,0E0,0E0,6.6782265E0,0E0,1.9633789E0,0E0,1.1364133E0,0E0,1.5226368E0,0E0,0E0,0E0,0E0],"parents":[2147483647,0,0,1,1,2,2,3,3,5,5,8,8,10,10,12,12,14,14],"right_children":[2,4,6,8,-1,10,-1,-1,12,-1,14,-1,16,-1,18,-1,-1,-1,-1],"split_conditions":[-1.2086945E0,4.1320792E-1,1.4161107E-1,5.0443355E-2,-3.1529676E-2,-4.147307E-1,4.955709E-2,5.8652725E-2,-1.2126822E0,3.5994206E-2,-9.472474E-2,5.1942546E-2,-7.869249E-1,-5.8764942E-2,-2.5027376E-1,3.4705352E-3,-5.1054116E-2,-3.366736E-2,2.496808E-2],"split_indices":[4,2,46,2,0,3,0,0,4,0,3,0,0,0,1,0,0,0,0],"split_type":[0,0,0,0,0,0,0,0,0,0,0,0,0,0,0,0,0,0,0],"sum_hessian":[5.701034E3,2.843102E3,2.8579321E3,2.840736E3,2.3659215E0,2.8539844E3,3.947668E0,2.8311624E3,9.573864E0,1.4102482E0,2.8525742E3,7.0213504E0,2.5525136E0,2.8501262E3,2.448007E0,1.1147214E0,1.4377923E0,1.4383025E0,1.0097046E0],"tree_param":{"num_deleted":"0","num_feature":"77","num_nodes":"19","size_leaf_vector":"1"}},{"base_weights":[3.2752973E-3,1.1590987E0,-1.1600803E0,1.1612694E0,-4.428869E-2,-1.1631539E0,4.718365E-2,5.815655E-2,5.843283E-1,1.4261909E-2,-1.1640506E0,9.706292E-1,-4.9361113E-2,-5.8221877E-2,-1.0431464E-2,5.1947158E-2,7.8002685E-3],"categories":[],"categories_nodes":[],"categories_segments":[],"categories_sizes":[],"default_left":[0,0,0,0,0,0,0,0,0,0,0,0,0,0,0,0,0],"id":25,"left_children":[1,3,5,7,-1,9,-1,-1,11,-1,13,15,-1,-1,-1,-1,-1],"loss_changes":[7.35836E3,1.32404785E1,1.8754395E1,2.0915527E0,0E0,3.9572754E0,0E0,0E0,7.6368933E0,0E0,6.2597656E-1,2.4086666E-1,0E0,0E0,0E0,0E0,0E0],"parents":[2147483647,0,0,1,1,2,2,3,3,5,5,8,8,10,10,11,11],"right_children":[2,4,6,8,-1,10,-1,-1,12,-1,14,16,-1,-1,-1,-1,-1],"split_conditions":[-1.2086945E0,4.1320792E-1,1.4161107E-1,5.0443355E-2,-4.428869E-2,-1.2725164E0,4.718365E-2,5.815655E-2,-3.1180748E-1,1.4261909E-2,1.1727485E-1,1.3129957E0,-4.9361113E-2,-5.8221877E-2,-1.0431464E-2,5.1947158E-2,7.8002685E-3],"split_indices":[4,2,46,2,0,2,0,0,14,0,46,74,0,0,0,0,0],"split_type":[0,0,0,0,0,0,0,0,0,0,0,0,0,0,0,0,0],"sum_hessian":[5.4703896E3,2.744123E3,2.7262666E3,2.7416938E3,2.4292634E0,2.7227832E3,3.483265E0,2.73169E3,1.0003819E1,1.4195205E0,2.7213638E3,8.387985E0,1.6158344E0,2.719939E3,1.4248264E0,7.371679E0,1.0163064E0],"tree_param":{"num_deleted":"0","num_feature":"77","num_nodes":"17","size_leaf_vector":"1"}},{"base_weights":[-2.0157646E-3,1.1485991E0,-1.1504104E0,-5.7293028E-2,5.762843E-2,4.1656632E-2,-1.1538309E0,4.7656395E-2,-8.732635E-1,-5.7773497E-2,4.027373E-2,2.6455189E-3,-5.5737045E-2],"categories":[],"categories_nodes":[],"categories_segments":[],"categories_sizes":[],"default_left":[0,0,0,0,0,0,0,0,0,0,0,0,0],"id":26,"left_children":[1,3,5,7,-1,-1,9,-1,11,-1,-1,-1,-1],"loss_changes":[6.9105737E3,1.268042E1,1.8752686E1,8.608269E0,0E0,0E0,9.358398E0,0E0,1.462276E0,0E0,0E0,0E0,0E0],"parents":[2147483647,0,0,1,1,2,2,3,3,6,6,8,8],"right_children":[2,4,6,8,-1,-1,10,-1,12,-1,-1,-1,-1],"split_conditions":[-1.2086945E0,-7.8267224E-2,-4.1466013E-1,-1.2133917E0,5.762843E-2,4.1656632E-2,4.3362968E-2,4.7656395E-2,-3.0770773E-1,-5.7773497E-2,4.027373E-2,2.6455189E-3,-5.5737045E-2],"split_indices":[4,44,3,4,0,0,44,0,14,0,0,0,0],"split_type":[0,0,0,0,0,0,0,0,0,0,0,0,0],"sum_hessian":[5.2278945E3,2.6113794E3,2.6165154E3,8.441083E0,2.6029382E3,4.036302E0,2.612479E3,3.6413429E0,4.79974E0,2.6107563E3,1.7227157E0,1.0684657E0,3.7312744E0],"tree_param":{"num_deleted":"0","num_feature":"77","num_nodes":"13","size_leaf_vector":"1"}},{"base_weights":[1.294362E-3,-8.095081E-1,1.1356541E0,7.923471E-1,-1.0949559E0,1.1393238E0,-4.3595653E-2,-9.141483E-1,9.3672395E-1,-9.010645E-1,-5.696069E-2,6.438753E-1,5.7265688E-2,-1.010141E0,3.4591805E-2,9.891914E-1,1.6926615E-1,-3.5164613E-1,-1.1235417E0,5.2981496E-2,-6.980255E-1,3.0298365E-2,-5.56821E-2,1.0922074E0,7.8096086E-1,-9.784179E-1,5.3494245E-2,1.0980877E-1,-1.040097E0,-1.1302961E0,-4.8021892E-1,-0E0,-4.7632683E-2,5.496198E-2,2.2275891E-2,-1.4572662E-2,5.680592E-2,-5.2060585E-2,-1.0001499E-2,-4.937558E-2,2.5091996E-2,-5.324347E-2,-1.4220603E-2,-4.0113334E-2,-5.7155527E-2,-3.686204E-2,9.526023E-4],"categories":[],"categories_nodes":[],"categories_segments":[],"categories_sizes":[],"default_left":[0,0,0,0,0,0,0,0,0,0,0,0,0,0,0,0,0,0,0,0,0,0,0,0,0,0,0,0,0,0,0,0,0,0,0,0,0,0,0,0,0,0,0,0,0,0,0],"id":27,"left_children":[1,3,5,7,9,11,-1,13,15,17,-1,19,-1,21,-1,23,25,27,29,-1,31,-1,-1,33,35,37,-1,39,41,43,45,-1,-1,-1,-1,-1,-1,-1,-1,-1,-1,-1,-1,-1,-1,-1,-1],"loss_changes":[4.6170093E3,1.3394316E3,1.6436035E1,1.10074005E2,2.0094482E1,5.2839355E0,0E0,6.131054E0,1.6195923E1,5.6544678E1,0E0,1.6084232E1,0E0,6.332409E0,0E0,7.1698303E0,2.9497927E1,4.3474945E1,7.380676E-1,0E0,1.3305647E0,0E0,0E0,5.0738525E-1,5.0122932E1,2.8211212E-1,0E0,3.587601E1,5.88768E-1,2.6504517E-1,7.711692E-1,0E0,0E0,0E0,0E0,0E0,0E0,0E0,0E0,0E0,0E0,0E0,0E0,0E0,0E0,0E0,0E0],"parents":[2147483647,0,0,1,1,2,2,3,3,4,4,5,5,7,7,8,8,9,9,11,11,13,13,15,15,16,16,17,17,18,18,20,20,23,23,24,24,25,25,27,27,28,28,29,29,30,30],"right_children":[2,4,6,8,10,12,-1,14,16,18,-1,20,-1,22,-1,24,26,28,30,-1,32,-1,-1,34,36,38,-1,40,42,44,46,-1,-1,-1,-1,-1,-1,-1,-1,-1,-1,-1,-1,-1,-1,-1,-1],"split_conditions":[1.3916894E-2,-1.194272E0,4.8502633E-1,-7.8267224E-2,-6.637398E-1,3.0538568E-2,-4.3595653E-2,-2.1322711E-1,3.4867862E-1,-3.1502175E-1,-5.696069E-2,-1.0048257E0,5.7265688E-2,-8.9099276E-1,3.4591805E-2,-1.2539266E0,-2.1322711E-1,-3.458504E-1,-2.2389328E-1,5.2981496E-2,-3.189754E-1,3.0298365E-2,-5.56821E-2,1.4640838E-1,-2.2640575E-1,1.1316799E0,5.3494245E-2,-6.537599E-2,2.19244E0,-3.1215647E-1,6.028914E-1,-0E0,-4.7632683E-2,5.496198E-2,2.2275891E-2,-1.4572662E-2,5.680592E-2,-5.2060585E-2,-1.0001499E-2,-4.937558E-2,2.5091996E-2,-5.324347E-2,-1.4220603E-2,-4.0113334E-2,-5.7155527E-2,-3.686204E-2,9.526023E-4],"split_indices":[44,2,2,44,2,44,0,1,0,1,0,2,0,0,0,2,1,0,1,0,1,0,0,0,1,39,0,44,33,1,52,0,0,0,0,0,0,0,0,0,0,0,0,0,0,0,0],"split_type":[0,0,0,0,0,0,0,0,0,0,0,0,0,0,0,0,0,0,0,0,0,0,0,0,0,0,0,0,0,0,0,0,0,0,0,0,0,0,0,0,0,0,0,0,0,0,0],"sum_hessian":[5.0178633E3,2.9263816E3,2.0914817E3,4.4228323E2,2.4840984E3,2.088147E3,3.3348303E0,3.4030285E1,4.0825293E2,4.6603613E2,2.0180623E3,2.6439293E1,2.0617075E3,3.2519794E1,1.5104885E0,3.8173624E2,2.6516714E1,1.3519514E2,3.3084097E2,2.0402851E1,6.0364428E0,1.606971E0,3.0912825E1,2.5222826E2,1.2950797E2,1.1572337E1,1.4944377E1,8.135785E1,5.38373E1,3.2650055E2,4.3404403E0,1.7926501E0,4.243793E0,2.4866977E2,3.558486E0,3.2194138E1,9.7313835E1,1.0277141E1,1.2951965E0,2.0948265E1,6.0409584E1,5.160417E1,2.23313E0,1.4959857E1,3.1154068E2,2.682937E0,1.6575034E0],"tree_param":{"num_deleted":"0","num_feature":"77","num_nodes":"47","size_leaf_vector":"1"}},{"base_weights":[-4.0656133E-4,1.1334031E0,-1.1332589E0,1.1354703E0,-4.9382997E-1,-1.1368049E0,4.675525E-2,5.6839693E-2,4.0975052E-1,-3.8473926E-2,1.6108354E-3,1.8362265E-2,-1.1379389E0,4.5183085E-2,-4.288355E-2,-4.234115E-3,-5.6916494E-2],"categories":[],"categories_nodes":[],"categories_segments":[],"categories_sizes":[],"default_left":[0,0,0,0,0,0,0,0,0,0,0,0,0,0,0,0,0],"id":28,"left_children":[1,3,5,7,9,11,-1,-1,13,-1,-1,-1,15,-1,-1,-1,-1],"loss_changes":[6.1662744E3,8.695557E0,1.8696533E1,1.6816406E0,6.3207066E-1,4.5842285E0,0E0,0E0,4.5760155E0,0E0,0E0,0E0,7.6831055E-1,0E0,0E0,0E0,0E0],"parents":[2147483647,0,0,1,1,2,2,3,3,4,4,5,5,8,8,12,12],"right_children":[2,4,6,8,10,12,-1,-1,14,-1,-1,-1,16,-1,-1,-1,-1],"split_conditions":[-1.2086945E0,3.3881864E-1,1.6542727E-1,1.1725971E-1,-1.9788237E-1,-1.2725164E0,4.675525E-2,5.6839693E-2,-1.210948E0,-3.8473926E-2,1.6108354E-3,1.8362265E-2,-8.9225155E-1,4.5183085E-2,-4.288355E-2,-4.234115E-3,-5.6916494E-2],"split_indices":[4,2,46,2,46,2,0,0,4,0,0,0,0,0,0,0,0],"split_type":[0,0,0,0,0,0,0,0,0,0,0,0,0,0,0,0,0],"sum_hessian":[4.7987534E3,2.398319E3,2.4004343E3,2.3956394E3,2.679584E0,2.396824E3,3.6103823E0,2.390575E3,5.0645547E0,1.5793463E0,1.1002378E0,1.4960088E0,2.3953281E3,3.9076579E0,1.1568968E0,1.0644904E0,2.3942637E3],"tree_param":{"num_deleted":"0","num_feature":"77","num_nodes":"17","size_leaf_vector":"1"}},{"base_weights":[8.803025E-4,1.1246544E0,-1.1250544E0,1.127294E0,-1.0068548E-1,-1.1287907E0,4.677504E-2,5.641691E-2,5.6108487E-1,4.287703E-2,-4.775335E-2,-8.546754E-2,-5.654E-2,4.5217283E-2,-2.2040775E-2,4.588398E-2,-4.07147E-2],"categories":[],"categories_nodes":[],"categories_segments":[],"categories_sizes":[],"default_left":[0,0,0,0,0,0,0,0,0,0,0,0,0,0,0,0,0],"id":29,"left_children":[1,3,5,7,9,11,-1,-1,13,-1,-1,15,-1,-1,-1,-1,-1],"loss_changes":[5.8539937E3,7.705078E0,1.8868164E1,5.6469727E-1,5.5885344E0,4.6186523E0,0E0,0E0,2.6526816E0,0E0,0E0,4.840347E0,0E0,0E0,0E0,0E0,0E0],"parents":[2147483647,0,0,1,1,2,2,3,3,4,4,5,5,8,8,11,11],"right_children":[2,4,6,8,10,12,-1,-1,14,-1,-1,16,-1,-1,-1,-1,-1],"split_conditions":[-1.2086945E0,2.3001046E-1,1.4161107E-1,5.0443355E-2,-1.2127409E0,-8.913296E-1,4.677504E-2,5.641691E-2,-2.9091775E-1,4.287703E-2,-4.775335E-2,-3.3889863E-1,-5.654E-2,4.5217283E-2,-2.2040775E-2,4.588398E-2,-4.07147E-2],"split_indices":[4,2,46,2,4,0,0,0,1,0,0,1,0,0,0,0,0],"split_type":[0,0,0,0,0,0,0,0,0,0,0,0,0,0,0,0,0],"sum_hessian":[4.6245796E3,2.3145554E3,2.3100242E3,2.3097417E3,4.8138847E0,2.3063428E3,3.6813858E0,2.3043223E3,5.4192934E0,2.2121363E0,2.6017485E0,4.612517E0,2.3017302E3,4.1832514E0,1.2360424E0,1.7742022E0,2.8383148E0],"tree_param":{"num_deleted":"0","num_feature":"77","num_nodes":"17","size_leaf_vector":"1"}},{"base_weights":[1.7021969E-3,1.1163722E0,-1.1185946E0,1.1196715E0,-3.2727084E-1,-1.1217736E0,4.392067E-2,2.7317742E-1,1.1215302E0,3.9055828E-2,-4.9581543E-2,1.2330709E-2,-1.1227407E0,4.432502E-2,-5.458119E-1,5.612439E-2,4.8594436E-1,-5.6171663E-2,1.2892969E-4,-0E0,-4.073886E-2,4.2074155E-2,-2.0182377E-2],"categories":[],"categories_nodes":[],"categories_segments":[],"categories_sizes":[],"default_left":[0,0,0,0,0,0,0,0,0,0,0,0,0,0,0,0,0,0,0,0,0,0,0],"id":30,"left_children":[1,3,5,7,9,11,-1,13,15,-1,-1,-1,17,-1,19,-1,21,-1,-1,-1,-1,-1,-1],"loss_changes":[5.501677E3,1.0964111E1,1.4958252E1,3.0217285E0,5.0226197E0,3.2683105E0,0E0,3.6665125E0,6.3183594E-1,0E0,0E0,0E0,1.8239746E0,0E0,4.7061843E-1,0E0,2.0369422E0,0E0,0E0,0E0,0E0,0E0,0E0],"parents":[2147483647,0,0,1,1,2,2,3,3,4,4,5,5,7,7,8,8,12,12,14,14,16,16],"right_children":[2,4,6,8,10,12,-1,14,16,-1,-1,-1,18,-1,20,-1,22,-1,-1,-1,-1,-1,-1],"split_conditions":[-1.2086945E0,2.3001046E-1,1.6542727E-1,-7.8267224E-2,-1.2127409E0,-3.393687E-1,4.392067E-2,-1.2137232E0,7.331115E-2,3.9055828E-2,-4.9581543E-2,1.2330709E-2,3.0538568E-2,4.432502E-2,-2.8221184E-1,5.612439E-2,-2.9091775E-1,-5.6171663E-2,1.2892969E-4,-0E0,-4.073886E-2,4.2074155E-2,-2.0182377E-2],"split_indices":[4,2,46,44,4,1,0,4,2,0,0,0,44,0,5,0,1,0,0,0,0,0,0],"split_type":[0,0,0,0,0,0,0,0,0,0,0,0,0,0,0,0,0,0,0,0,0,0,0],"sum_hessian":[4.403707E3,2.2074436E3,2.1962634E3,2.2027034E3,4.7403197E0,2.1932605E3,3.0029175E0,5.268266E0,2.197435E3,1.6542246E0,3.086095E0,1.2966216E0,2.1919639E3,3.0350523E0,2.233214E0,2.193207E3,4.227878E0,2.1907063E3,1.2577256E0,1.0733861E0,1.159828E0,3.1395862E0,1.088292E0],"tree_param":{"num_deleted":"0","num_feature":"77","num_nodes":"23","size_leaf_vector":"1"}},{"base_weights":[2.3293149E-4,1.1090008E0,-1.1110538E0,1.1127627E0,-3.4678787E-1,-1.1149689E0,6.985611E-1,2.8226346E-1,1.1146078E0,3.615206E-2,-4.9611103E-2,2.9108936E-2,-1.1161433E0,4.5631375E-2,-1.9231321E-3,-5.242198E-1,4.2820398E-2,5.5779826E-2,4.7019577E-1,-1.1169505E0,-3.3060752E-3,-3.760411E-2,-0E0,4.1581653E-2,-2.1126354E-2,-9.448509E-3,-5.586664E-2],"categories":[],"categories_nodes":[],"categories_segments":[],"categories_sizes":[],"default_left":[0,0,0,0,0,0,0,0,0,0,0,0,0,0,0,0,0,0,0,0,0,0,0,0,0,0,0],"id":31,"left_children":[1,3,5,7,9,11,13,15,17,-1,-1,-1,19,-1,-1,21,-1,-1,23,25,-1,-1,-1,-1,-1,-1,-1],"loss_changes":[5.211683E3,1.2058105E1,1.5786621E1,2.7819824E0,4.991727E0,4.9050293E0,9.303107E-1,3.3258448E0,6.5966797E-1,0E0,0E0,0E0,1.59375E0,0E0,0E0,3.3385623E-1,0E0,0E0,2.0415435E0,4.0527344E-1,0E0,0E0,0E0,0E0,0E0,0E0,0E0],"parents":[2147483647,0,0,1,1,2,2,3,3,4,4,5,5,6,6,7,7,8,8,12,12,15,15,18,18,19,19],"right_children":[2,4,6,8,10,12,14,16,18,-1,-1,-1,20,-1,-1,22,-1,-1,24,26,-1,-1,-1,-1,-1,-1,-1],"split_conditions":[-1.2086945E0,2.3001046E-1,1.1727485E-1,-7.8267224E-2,-1.2127409E0,-4.147307E-1,-1.203858E0,-2.7043821E-2,7.331115E-2,3.615206E-2,-4.9611103E-2,2.9108936E-2,-9.472474E-2,4.5631375E-2,-1.9231321E-3,2.1072973E-1,4.2820398E-2,5.5779826E-2,-3.0334815E-1,-1.2719395E0,-3.3060752E-3,-3.760411E-2,-0E0,4.1581653E-2,-2.1126354E-2,-9.448509E-3,-5.586664E-2],"split_indices":[4,2,46,44,4,3,2,46,2,0,0,0,3,0,0,10,0,0,3,2,0,0,0,0,0,0,0],"split_type":[0,0,0,0,0,0,0,0,0,0,0,0,0,0,0,0,0,0,0,0,0,0,0,0,0,0,0],"sum_hessian":[4.2277163E3,2.1163025E3,2.1114136E3,2.1111514E3,5.1511445E0,2.1072935E3,4.1199937E0,5.1413546E0,2.10601E3,1.8347723E0,3.3163722E0,1.0561553E0,2.1062373E3,3.113195E0,1.0067987E0,2.1018012E0,3.0395532E0,2.1018987E3,4.1113524E0,2.1044607E3,1.7767713E0,1.0972297E0,1.0045716E0,3.0549436E0,1.0564091E0,1.1782298E0,2.1032825E3],"tree_param":{"num_deleted":"0","num_feature":"77","num_nodes":"27","size_leaf_vector":"1"}},{"base_weights":[2.4564106E-3,1.1039928E0,-1.1042193E0,5.538535E-2,2.0576526E-1,-1.1078236E0,4.4145565E-2,4.8929807E-2,-9.0406954E-1,3.3526275E-2,-1.1093395E0,-5.1590085E-2,-1.05800675E-2,-1.1104513E0,-0E0,-4.52258E-3,-5.554337E-2],"categories":[],"categories_nodes":[],"categories_segments":[],"categories_sizes":[],"default_left":[0,0,0,0,0,0,0,0,0,0,0,0,0,0,0,0,0],"id":32,"left_children":[1,3,5,-1,7,9,-1,-1,11,-1,13,-1,-1,15,-1,-1,-1],"loss_changes":[4.919323E3,6.3876953E0,1.5417725E1,0E0,9.183927E0,6.2060547E0,0E0,0E0,4.9613476E-2,0E0,2.50708E0,0E0,0E0,6.308594E-1,0E0,0E0,0E0],"parents":[2147483647,0,0,1,1,2,2,4,4,5,5,8,8,10,10,13,13],"right_children":[2,4,6,-1,8,10,-1,-1,12,-1,14,-1,-1,16,-1,-1,-1],"split_conditions":[-1.2086945E0,7.331115E-2,1.4161107E-1,5.538535E-2,-1.2127409E0,-4.1466013E-1,4.4145565E-2,4.8929807E-2,2.2532271E-1,3.3526275E-2,-9.472474E-2,-5.1590085E-2,-1.05800675E-2,-1.2719395E0,-0E0,-4.52258E-3,-5.554337E-2],"split_indices":[4,2,46,0,4,3,0,0,25,0,3,0,0,2,0,0,0],"split_type":[0,0,0,0,0,0,0,0,0,0,0,0,0,0,0,0,0],"sum_hessian":[4.0333958E3,2.0214379E3,2.0119578E3,2.0127706E3,8.667265E0,2.008807E3,3.1507754E0,5.2321935E0,3.4350717E0,1.2788421E0,2.0075282E3,2.3644764E0,1.0705953E0,2.0055415E3,1.9867246E0,1.0047154E0,2.0045367E3],"tree_param":{"num_deleted":"0","num_feature":"77","num_nodes":"17","size_leaf_vector":"1"}},{"base_weights":[2.5992878E-3,1.0979574E0,-1.0983466E0,1.1014044E0,-1.5846746E-1,4.3279886E-2,-1.1017323E0,4.1199586E-1,1.1029145E0,4.115186E-2,-4.7305524E-2,-1.103945E0,4.054525E-2,4.3421347E-2,-1.7006911E-2,5.519774E-2,4.7570357E-1,-4.894019E-3,-5.5233117E-2,4.124276E-2,-2.017558E-2],"categories":[],"categories_nodes":[],"categories_segments":[],"categories_sizes":[],"default_left":[0,0,0,0,0,0,0,0,0,0,0,0,0,0,0,0,0,0,0,0,0],"id":33,"left_children":[1,3,5,7,9,-1,11,13,15,-1,-1,17,-1,-1,-1,-1,19,-1,-1,-1,-1],"loss_changes":[4.665081E3,8.667236E0,1.380542E1,1.4074707E0,5.5071764E0,0E0,9.077393E0,2.3969688E0,5.756836E-1,0E0,0E0,1.1606445E0,0E0,0E0,0E0,0E0,1.9439671E0,0E0,0E0,0E0,0E0],"parents":[2147483647,0,0,1,1,2,2,3,3,4,4,6,6,7,7,8,8,11,11,16,16],"right_children":[2,4,6,8,10,-1,12,14,16,-1,-1,18,-1,-1,-1,-1,20,-1,-1,-1,-1],"split_conditions":[-1.2086945E0,2.3001046E-1,-4.1466013E-1,-7.8267224E-2,-1.2127409E0,4.3279886E-2,4.3362968E-2,-1.2133917E0,7.331115E-2,4.115186E-2,-4.7305524E-2,-3.1616E-1,4.054525E-2,4.3421347E-2,-1.7006911E-2,5.519774E-2,-3.0334815E-1,-4.894019E-3,-5.5233117E-2,4.124276E-2,-2.017558E-2],"split_indices":[4,2,3,44,4,0,44,4,2,0,0,13,0,0,0,0,3,0,0,0,0],"split_type":[0,0,0,0,0,0,0,0,0,0,0,0,0,0,0,0,0,0,0,0,0],"sum_hessian":[3.8664517E3,1.9381912E3,1.9282604E3,1.9330906E3,5.100551E0,2.8292623E0,1.9254312E3,4.967872E0,1.9281228E3,2.194288E0,2.906263E0,1.9236807E3,1.7504224E0,3.0782068E0,1.8896655E0,1.9240117E3,4.111072E0,1.5678369E0,1.9221129E3,3.0682015E0,1.0428705E0],"tree_param":{"num_deleted":"0","num_feature":"77","num_nodes":"21","size_leaf_vector":"1"}},{"base_weights":[-1.3929982E-4,1.0912304E0,-1.0939867E0,-4.7573615E-2,1.0955762E0,-1.0975401E0,4.268983E-2,4.2900838E-2,-7.993037E-1,5.485028E-2,2.2818075E-1,-0E0,-1.0981839E0,-5.210818E-2,3.6217648E-4,4.105053E-2,-3.5910774E-2,-5.4933906E-2,-3.8264547E-3],"categories":[],"categories_nodes":[],"categories_segments":[],"categories_sizes":[],"default_left":[0,0,0,0,0,0,0,0,0,0,0,0,0,0,0,0,0,0,0],"id":34,"left_children":[1,3,5,7,9,11,-1,-1,13,-1,15,-1,17,-1,-1,-1,-1,-1,-1],"loss_changes":[4.411083E3,9.310547E0,1.3734131E1,6.0595074E0,1.9016113E0,1.1948242E0,0E0,0E0,1.0700614E0,0E0,3.0737903E0,0E0,7.2802734E-1,0E0,0E0,0E0,0E0,0E0,0E0],"parents":[2147483647,0,0,1,1,2,2,3,3,4,4,5,5,8,8,10,10,12,12],"right_children":[2,4,6,8,10,12,-1,-1,14,-1,16,-1,18,-1,-1,-1,-1,-1,-1],"split_conditions":[-1.2086945E0,-7.8267224E-2,1.4161107E-1,-1.2133917E0,2.3001046E-1,-1.2725164E0,4.268983E-2,4.2900838E-2,-1.7357701E-1,5.485028E-2,-1.2127409E0,-0E0,3.0538568E-2,-5.210818E-2,3.6217648E-4,4.105053E-2,-3.5910774E-2,-5.4933906E-2,-3.8264547E-3],"split_indices":[4,44,46,4,2,2,0,0,46,0,4,0,44,0,0,0,0,0,0],"split_type":[0,0,0,0,0,0,0,0,0,0,0,0,0,0,0,0,0,0,0],"sum_hessian":[3.6930183E3,1.8485583E3,1.84446E3,6.9022946E0,1.841656E3,1.8415881E3,2.8717453E0,3.006284E0,3.8960106E0,1.8382467E3,3.4093037E0,1.1688304E0,1.8404193E3,2.8651419E0,1.0308688E0,2.242645E0,1.1666586E0,1.8393562E3,1.0630975E0],"tree_param":{"num_deleted":"0","num_feature":"77","num_nodes":"19","size_leaf_vector":"1"}},{"base_weights":[-7.05306E-4,1.084723E0,-1.087118E0,-1.2118444E-1,1.0893316E0,3.8036056E-2,-1.0912844E0,4.148042E-2,-8.457179E-1,5.455011E-2,1.5171419E-1,-1.093117E0,3.5319638E-2,-4.971003E-2,-7.110493E-3,4.001634E-2,-3.708538E-2,-9.33421E-3,-5.4694917E-2],"categories":[],"categories_nodes":[],"categories_segments":[],"categories_sizes":[],"default_left":[0,0,0,0,0,0,0,0,0,0,0,0,0,0,0,0,0,0,0],"id":35,"left_children":[1,3,5,7,9,-1,11,-1,13,-1,15,17,-1,-1,-1,-1,-1,-1,-1],"loss_changes":[4.170573E3,1.0061035E1,1.4471436E1,5.906157E0,2.4709473E0,0E0,6.6228027E0,0E0,2.506857E-1,0E0,3.1507776E0,9.1625977E-1,0E0,0E0,0E0,0E0,0E0,0E0,0E0],"parents":[2147483647,0,0,1,1,2,2,3,3,4,4,6,6,8,8,10,10,11,11],"right_children":[2,4,6,8,10,-1,12,-1,14,-1,16,18,-1,-1,-1,-1,-1,-1,-1],"split_conditions":[-1.2086945E0,-7.8267224E-2,-4.1466013E-1,-1.2133917E0,2.3001046E-1,3.8036056E-2,4.3362968E-2,4.148042E-2,-1.797559E-1,5.455011E-2,-1.2127409E0,-4.144874E-1,3.5319638E-2,-4.971003E-2,-7.110493E-3,4.001634E-2,-3.708538E-2,-9.33421E-3,-5.4694917E-2],"split_indices":[4,44,3,4,2,0,44,0,46,0,4,3,0,0,0,0,0,0,0],"split_type":[0,0,0,0,0,0,0,0,0,0,0,0,0,0,0,0,0,0,0],"sum_hessian":[3.534713E3,1.7681122E3,1.7666006E3,6.5527263E0,1.7615596E3,3.5117366E0,1.7630889E3,2.7114685E0,3.8412576E0,1.7581567E3,3.402718E0,1.7617404E3,1.3484045E0,2.713249E0,1.1280086E0,2.0966833E0,1.3060349E0,1.834242E0,1.7599061E3],"tree_param":{"num_deleted":"0","num_feature":"77","num_nodes":"19","size_leaf_vector":"1"}},{"base_weights":[1.5882808E-3,1.0807816E0,-1.0814124E0,1.0838208E0,-2.1932445E-1,-1.0853506E0,4.260335E-2,2.1556084E-1,1.0859714E0,3.4790713E-2,-4.1924853E-2,2.2399087E-2,-1.0870423E0,4.0110204E-2,-4.7677338E-1,5.435955E-2,4.9488676E-1,-1.0882041E0,2.2243573E-3,-0E0,-3.6783036E-2,4.189164E-2,-2.2579538E-2,-4.804703E-3,-5.4434128E-2],"categories":[],"categories_nodes":[],"categories_segments":[],"categories_sizes":[],"default_left":[0,0,0,0,0,0,0,0,0,0,0,0,0,0,0,0,0,0,0,0,0,0,0,0,0],"id":36,"left_children":[1,3,5,7,9,11,-1,13,15,-1,-1,-1,17,-1,19,-1,21,23,-1,-1,-1,-1,-1,-1,-1],"loss_changes":[3.959907E3,7.029541E0,1.3824463E1,2.7978516E0,3.2681534E0,4.9294434E0,0E0,2.6677601E0,5.2111816E-1,0E0,0E0,0E0,2.369995E0,0E0,4.2637986E-1,0E0,2.196318E0,5.767822E-1,0E0,0E0,0E0,0E0,0E0,0E0,0E0],"parents":[2147483647,0,0,1,1,2,2,3,3,4,4,5,5,7,7,8,8,12,12,14,14,16,16,17,17],"right_children":[2,4,6,8,10,12,-1,14,16,-1,-1,-1,18,-1,20,-1,22,24,-1,-1,-1,-1,-1,-1,-1],"split_conditions":[-1.2086945E0,2.5326124E-1,1.6542727E-1,-7.8267224E-2,-1.2127409E0,-4.1466013E-1,4.260335E-2,-1.2133917E0,7.331115E-2,3.4790713E-2,-4.1924853E-2,2.2399087E-2,3.0538568E-2,4.0110204E-2,-7.68898E-1,5.435955E-2,-3.0334815E-1,-1.2719395E0,2.2243573E-3,-0E0,-3.6783036E-2,4.189164E-2,-2.2579538E-2,-4.804703E-3,-5.4434128E-2],"split_indices":[4,2,46,44,4,3,0,4,2,0,0,0,44,0,0,0,3,2,0,0,0,0,0,0,0],"split_type":[0,0,0,0,0,0,0,0,0,0,0,0,0,0,0,0,0,0,0,0,0,0,0,0,0],"sum_hessian":[3.3861062E3,1.6960815E3,1.6900245E3,1.6923688E3,3.7128682E0,1.6870785E3,2.9459918E0,4.5465455E0,1.6878221E3,1.3832034E0,2.3296647E0,1.503295E0,1.6855752E3,2.4534125E0,2.0931332E0,1.6833405E3,4.481785E0,1.6839728E3,1.6024406E0,1.006112E0,1.0870212E0,3.4515839E0,1.030201E0,1.0097167E0,1.682963E3],"tree_param":{"num_deleted":"0","num_feature":"77","num_nodes":"25","size_leaf_vector":"1"}},{"base_weights":[-2.8027855E-3,-7.6421285E-1,1.0739917E0,-1.0019884E0,1.0619651E0,1.0779183E0,-2.9373815E-2,3.3852455E-1,-1.0628488E0,1.0752488E0,-2.9951314E-2,6.369377E-1,5.4141577E-2,-9.2981887E-1,5.8454794E-1,-1.0718538E0,4.6590786E-2,1.6688073E-2,5.3978987E-2,4.8320536E-2,-5.190858E-1,-1.0079138E-2,-4.9032304E-2,2.7190584E-1,5.2120782E-2,-9.110918E-1,-5.419373E-2,5.0574695E-3,-3.809919E-2,5.1436126E-2,-4.858564E-2,-4.2334623E-3,-5.319012E-2],"categories":[],"categories_nodes":[],"categories_segments":[],"categories_sizes":[],"default_left":[0,0,0,0,0,0,0,0,0,0,0,0,0,0,0,0,0,0,0,0,0,0,0,0,0,0,0,0,0,0,0,0,0],"id":37,"left_children":[1,3,5,7,9,11,-1,13,15,17,-1,19,-1,21,23,25,-1,-1,-1,-1,27,-1,-1,29,-1,31,-1,-1,-1,-1,-1,-1,-1],"loss_changes":[2.6525322E3,8.240123E2,9.424805E0,1.3728687E2,5.518814E0,2.0358887E0,0E0,2.3455925E1,2.9840698E1,1.9667053E-1,0E0,7.1692247E0,0E0,1.3814545E-1,8.499144E0,1.9016113E0,0E0,0E0,0E0,0E0,8.1203985E-1,0E0,0E0,3.722857E1,0E0,1.4692642E1,0E0,0E0,0E0,0E0,0E0,0E0,0E0],"parents":[2147483647,0,0,1,1,2,2,3,3,4,4,5,5,7,7,8,8,9,9,11,11,13,13,14,14,15,15,20,20,23,23,25,25],"right_children":[2,4,6,8,10,12,-1,14,16,18,-1,20,-1,22,24,26,-1,-1,-1,-1,28,-1,-1,30,-1,32,-1,-1,-1,-1,-1,-1,-1],"split_conditions":[1.3916894E-2,1.00614175E-1,4.1320792E-1,-1.2304791E0,-2.825285E-1,3.0538568E-2,-2.9373815E-2,-7.8267224E-2,-1.8477549E-1,1.1727485E-1,-2.9951314E-2,-1.0048257E0,5.4141577E-2,-1.1417806E0,-1.8477549E-1,-3.1253096E-1,4.6590786E-2,1.6688073E-2,5.3978987E-2,4.8320536E-2,-3.0499032E-1,-1.0079138E-2,-4.9032304E-2,-4.1180483E-1,5.2120782E-2,-3.9198488E-1,-5.419373E-2,5.0574695E-3,-3.809919E-2,5.1436126E-2,-4.858564E-2,-4.2334623E-3,-5.319012E-2],"split_indices":[44,46,2,2,2,44,0,44,13,46,0,2,0,28,13,14,0,0,0,0,13,0,0,3,0,3,0,0,0,0,0,0,0],"split_type":[0,0,0,0,0,0,0,0,0,0,0,0,0,0,0,0,0,0,0,0,0,0,0,0,0,0,0,0,0,0,0,0,0],"sum_hessian":[3.233297E3,1.8942446E3,1.3390526E3,1.676468E3,2.177767E2,1.3363058E3,2.7467568E0,7.253791E1,1.60393E3,2.1645845E2,1.3182647E0,1.6388336E1,1.3199175E3,1.1266906E1,6.1271004E1,1.597232E3,6.698023E0,1.8443674E0,2.1461407E2,1.2948476E1,3.4398608E0,1.1874201E0,1.0079486E1,3.748659E1,2.3784412E1,1.1704393E2,1.4801881E3,1.0163945E0,2.4234664E0,2.3461853E1,1.4024738E1,1.8599333E1,9.8444595E1],"tree_param":{"num_deleted":"0","num_feature":"77","num_nodes":"33","size_leaf_vector":"1"}},{"base_weights":[1.9969929E-3,1.0698774E0,-1.0731094E0,-1.6996322E-2,5.3706612E-2,-1.0771073E0,4.1224044E-2,-7.1156937E-1,3.9715897E-2,1.417553E-2,-1.0783435E0,-0E0,-4.7101807E-2,-5.398419E-2,-0E0],"categories":[],"categories_nodes":[],"categories_segments":[],"categories_sizes":[],"default_left":[0,0,0,0,0,0,0,0,0,0,0,0,0,0,0],"id":38,"left_children":[1,3,5,7,-1,9,-1,11,-1,-1,13,-1,-1,-1,-1],"loss_changes":[3.5497046E3,7.297119E0,1.260144E1,4.468617E0,0E0,2.972046E0,0E0,7.181494E-1,0E0,0E0,2.3190918E0,0E0,0E0,0E0,0E0],"parents":[2147483647,0,0,1,1,2,2,3,3,5,5,7,7,10,10],"right_children":[2,4,6,8,-1,10,-1,12,-1,-1,14,-1,-1,-1,-1],"split_conditions":[-1.2086945E0,-7.8267224E-2,1.4161107E-1,-3.6891438E-2,5.3706612E-2,-4.1466013E-1,4.1224044E-2,-3.0524123E-1,3.9715897E-2,1.417553E-2,-9.472474E-2,-0E0,-4.7101807E-2,-5.398419E-2,-0E0],"split_indices":[4,44,46,46,0,3,0,14,0,0,3,0,0,0,0],"split_type":[0,0,0,0,0,0,0,0,0,0,0,0,0,0,0],"sum_hessian":[3.0898484E3,1.5501826E3,1.5396658E3,5.941547E0,1.5442411E3,1.5369128E3,2.7529135E0,3.33372E0,2.6078267E0,1.1144156E0,1.5357983E3,1.0518397E0,2.2818801E0,1.5339746E3,1.8237593E0],"tree_param":{"num_deleted":"0","num_feature":"77","num_nodes":"15","size_leaf_vector":"1"}},{"base_weights":[7.882657E-4,-7.528835E-1,1.0650554E0,-9.8857224E-1,1.0649275E0,1.0695486E0,-3.7660286E-2,3.8621244E-1,-1.0507914E0,5.3516056E-2,-0E0,6.579192E-1,5.3703394E-2,-8.7202895E-1,6.297161E-1,-1.0608388E0,4.644113E-2,4.7777567E-2,-5.388644E-1,-3.4869604E-3,-4.7952548E-2,5.239578E-2,3.3288038E-1,-8.956308E-1,-5.371923E-2,-2.2796493E-3,-3.3592246E-2,-4.699185E-2,5.1078226E-2,-7.6174582E-3,-5.193845E-2],"categories":[],"categories_nodes":[],"categories_segments":[],"categories_sizes":[],"default_left":[0,0,0,0,0,0,0,0,0,0,0,0,0,0,0,0,0,0,0,0,0,0,0,0,0,0,0,0,0,0,0],"id":39,"left_children":[1,3,5,7,9,11,-1,13,15,-1,-1,17,-1,19,21,23,-1,-1,25,-1,-1,-1,27,29,-1,-1,-1,-1,-1,-1,-1],"loss_changes":[2.3657786E3,7.407878E2,1.0827393E1,1.3126013E2,1.115982E0,1.3900146E0,0E0,2.1011179E1,3.0100586E1,0E0,0E0,6.2818093E0,0E0,6.118088E-1,6.547863E0,2.0996094E0,0E0,0E0,1.45159E-1,0E0,0E0,0E0,3.1426231E1,1.21623535E1,0E0,0E0,0E0,0E0,0E0,0E0,0E0],"parents":[2147483647,0,0,1,1,2,2,3,3,4,4,5,5,7,7,8,8,11,11,13,13,14,14,15,15,18,18,22,22,23,23],"right_children":[2,4,6,8,10,12,-1,14,16,-1,-1,18,-1,20,22,24,-1,-1,26,-1,-1,-1,28,30,-1,-1,-1,-1,-1,-1,-1],"split_conditions":[1.3916894E-2,1.1727485E-1,4.1320792E-1,-1.2304791E0,-4.65696E-1,3.0538568E-2,-3.7660286E-2,-7.8267224E-2,-2.1322711E-1,5.3516056E-2,-0E0,-1.0048257E0,5.3703394E-2,-1.0196197E0,-4.1338018E-1,-3.947431E-1,4.644113E-2,4.7777567E-2,-3.0309245E-1,-3.4869604E-3,-4.7952548E-2,5.239578E-2,-2.5733674E-1,-3.1058323E-1,-5.371923E-2,-2.2796493E-3,-3.3592246E-2,-4.699185E-2,5.1078226E-2,-7.6174582E-3,-5.193845E-2],"split_indices":[44,46,2,2,2,44,0,44,1,0,0,2,0,42,3,3,0,0,1,0,0,0,13,13,0,0,0,0,0,0,0],"split_type":[0,0,0,0,0,0,0,0,0,0,0,0,0,0,0,0,0,0,0,0,0,0,0,0,0,0,0,0,0,0,0],"sum_hessian":[2.9474126E3,1.7256056E3,1.2218069E3,1.5280032E3,1.9760246E2,1.2192606E3,2.546231E0,6.58642E1,1.462139E3,1.9658002E2,1.0224348E0,1.5073016E1,1.2041876E3,1.0194573E1,5.566963E1,1.4552675E3,6.87151E0,1.229937E1,2.773647E0,1.2862906E0,8.908282E0,2.1920115E1,3.374951E1,1.159235E2,1.339344E3,1.0337926E0,1.7398545E0,1.16710415E1,2.207847E1,1.9165375E1,9.6758125E1],"tree_param":{"num_deleted":"0","num_feature":"77","num_nodes":"31","size_leaf_vector":"1"}},{"base_weights":[2.7160938E-3,1.0629917E0,-1.0653316E0,-1.9083644E-1,1.0677224E0,-1.0684862E0,3.9025288E-2,-4.3711253E-2,3.6469568E-2,5.3513538E-2,3.7183395E-1,2.3989472E-1,-5.356281E-2,-4.3051872E-2,4.526206E-2,4.1311994E-2,-2.852935E-2],"categories":[],"categories_nodes":[],"categories_segments":[],"categories_sizes":[],"default_left":[0,0,0,0,0,0,0,0,0,0,0,0,0,0,0,0,0],"id":40,"left_children":[1,3,5,7,9,11,-1,-1,-1,-1,13,15,-1,-1,-1,-1,-1],"loss_changes":[3.1960908E3,8.692627E0,9.049561E0,4.4837136E0,1.9605713E0,5.428711E0,0E0,0E0,0E0,0E0,5.2719994E0,2.2586231E0,0E0,0E0,0E0,0E0,0E0],"parents":[2147483647,0,0,1,1,2,2,3,3,4,4,5,5,10,10,11,11],"right_children":[2,4,6,8,10,12,-1,-1,-1,-1,14,16,-1,-1,-1,-1,-1],"split_conditions":[-1.2086945E0,-7.8267224E-2,4.3362968E-2,-2.7043821E-2,7.331115E-2,-4.144874E-1,3.9025288E-2,-4.3711253E-2,3.6469568E-2,5.3513538E-2,-9.1204345E-3,-8.870635E-1,-5.356281E-2,-4.3051872E-2,4.526206E-2,4.1311994E-2,-2.852935E-2],"split_indices":[4,44,44,46,2,3,0,0,0,0,44,0,0,0,0,0,0],"split_type":[0,0,0,0,0,0,0,0,0,0,0,0,0,0,0,0,0],"sum_hessian":[2.8203425E3,1.4153701E3,1.4049724E3,5.0927677E0,1.4102775E3,1.4030498E3,1.9226037E0,3.013507E0,2.0792606E0,1.4044526E3,5.8247843E0,2.7069328E0,1.4003428E3,1.5169476E0,4.307837E0,1.6309547E0,1.0759782E0],"tree_param":{"num_deleted":"0","num_feature":"77","num_nodes":"17","size_leaf_vector":"1"}},{"base_weights":[-1.298182E-3,1.0590694E0,-1.0600458E0,5.319156E-2,1.8410775E-1,3.950667E-2,-1.0640627E0,4.5027833E-2,-7.374081E-1,-1.0664706E0,3.5050116E-2,-1.896183E-3,-4.570353E-2,-2.686025E-3,-5.337229E-2],"categories":[],"categories_nodes":[],"categories_segments":[],"categories_sizes":[],"default_left":[0,0,0,0,0,0,0,0,0,0,0,0,0,0,0],"id":41,"left_children":[1,3,5,-1,7,-1,9,-1,11,13,-1,-1,-1,-1,-1],"loss_changes":[3.0330295E3,5.3028564E0,1.0915161E1,0E0,6.377256E0,0E0,6.5196533E0,0E0,3.9692378E-1,1.1619873E0,0E0,0E0,0E0,0E0,0E0],"parents":[2147483647,0,0,1,1,2,2,4,4,6,6,8,8,9,9],"right_children":[2,4,6,-1,8,-1,10,-1,12,14,-1,-1,-1,-1,-1],"split_conditions":[-1.2086945E0,5.0443355E-2,-4.1466013E-1,5.319156E-2,-1.2126822E0,3.950667E-2,7.6750955E-3,4.5027833E-2,-5.2110285E-1,-3.1616E-1,3.5050116E-2,-1.896183E-3,-4.570353E-2,-2.686025E-3,-5.337229E-2],"split_indices":[4,2,3,0,4,0,3,0,29,13,0,0,0,0,0],"split_type":[0,0,0,0,0,0,0,0,0,0,0,0,0,0,0],"sum_hessian":[2.6996414E3,1.3487415E3,1.3508999E3,1.3411127E3,7.6287475E0,2.4486184E0,1.3484513E3,4.365766E0,3.2629817E0,1.347066E3,1.3852977E0,1.0169901E0,2.2459917E0,1.448371E0,1.3456176E3],"tree_param":{"num_deleted":"0","num_feature":"77","num_nodes":"15","size_leaf_vector":"1"}},{"base_weights":[-1.7544418E-5,1.0519075E0,-1.0558351E0,-1.6846299E-1,1.0573554E0,-1.0601817E0,3.955468E-2,3.7601095E-2,-8.031777E-1,1.061131E0,1.643415E-1,4.7770374E-2,-1.0625305E0,-8.622437E-3,-4.6655703E-2,3.9554638E-1,5.3094666E-2,-4.700933E-2,4.3502748E-2,3.9191544E-2,-3.1389587E-2,-5.3201087E-2,4.2106505E-3,-0E0,2.6813075E-2],"categories":[],"categories_nodes":[],"categories_segments":[],"categories_sizes":[],"default_left":[0,0,0,0,0,0,0,0,0,0,0,0,0,0,0,0,0,0,0,0,0,0,0,0,0],"id":42,"left_children":[1,3,5,7,9,11,-1,-1,13,15,17,19,21,-1,-1,23,-1,-1,-1,-1,-1,-1,-1,-1,-1],"loss_changes":[2.8539692E3,8.824341E0,1.1161621E1,4.4075427E0,4.024414E0,3.4830322E0,0E0,0E0,8.8792086E-2,8.166504E-2,6.0262384E0,2.285172E0,2.3720703E0,0E0,0E0,1.3242185E-1,0E0,0E0,0E0,0E0,0E0,0E0,0E0,0E0,0E0],"parents":[2147483647,0,0,1,1,2,2,3,3,4,4,5,5,8,8,9,9,10,10,11,11,12,12,15,15],"right_children":[2,4,6,8,10,12,-1,-1,14,16,18,20,22,-1,-1,24,-1,-1,-1,-1,-1,-1,-1,-1,-1],"split_conditions":[-1.2086945E0,-7.8267224E-2,1.4161107E-1,-1.2133917E0,7.331115E-2,-4.144874E-1,3.955468E-2,3.7601095E-2,-3.487148E-1,-1.2961385E0,-9.1204345E-3,-8.913296E-1,-9.472474E-2,-8.622437E-3,-4.6655703E-2,-1.364898E-1,5.3094666E-2,-4.700933E-2,4.3502748E-2,3.9191544E-2,-3.1389587E-2,-5.3201087E-2,4.2106505E-3,-0E0,2.6813075E-2],"split_indices":[4,44,46,4,2,3,0,0,33,43,44,0,3,0,0,61,0,0,0,0,0,0,0,0,0],"split_type":[0,0,0,0,0,0,0,0,0,0,0,0,0,0,0,0,0,0,0,0,0,0,0,0,0],"sum_hessian":[2.5676592E3,1.2861548E3,1.2815043E3,5.501413E0,1.2806534E3,1.2789744E3,2.5299046E0,2.1055307E0,3.3958821E0,1.2749628E3,5.690659E0,2.574599E0,1.2763998E3,1.1090732E0,2.286809E0,2.2034204E0,1.2727593E3,2.0337074E0,3.6569517E0,1.2262716E0,1.3483274E0,1.2749012E3,1.4984798E0,1.0001134E0,1.2033069E0],"tree_param":{"num_deleted":"0","num_feature":"77","num_nodes":"25","size_leaf_vector":"1"}},{"base_weights":[6.7444786E-4,1.049029E0,-1.0531695E0,-6.4260036E-2,1.054135E0,-1.0568782E0,3.6964934E-2,3.812559E-2,-7.1111596E-1,1.0576231E0,2.2535376E-1,8.4655836E-2,-1.059477E0,-0E0,-4.5552764E-2,4.2306462E-1,5.292076E-2,-4.4790085E-2,4.337913E-2,3.9385147E-2,-3.0745242E-2,-5.302872E-2,1.6863755E-3,2.7971718E-2,6.0822227E-4],"categories":[],"categories_nodes":[],"categories_segments":[],"categories_sizes":[],"default_left":[0,0,0,0,0,0,0,0,0,0,0,0,0,0,0,0,0,0,0,0,0,0,0,0,0],"id":43,"left_children":[1,3,5,7,9,11,-1,-1,13,15,17,19,21,-1,-1,23,-1,-1,-1,-1,-1,-1,-1,-1,-1],"loss_changes":[2.7130608E3,7.164795E0,8.953857E0,3.9991777E0,3.1766357E0,3.8139648E0,0E0,0E0,5.369673E-1,1.7333984E-2,5.4746294E0,2.2798047E0,1.6019287E0,0E0,0E0,1.2342793E-1,0E0,0E0,0E0,0E0,0E0,0E0,0E0,0E0,0E0],"parents":[2147483647,0,0,1,1,2,2,3,3,4,4,5,5,8,8,9,9,10,10,11,11,12,12,15,15],"right_children":[2,4,6,8,10,12,-1,-1,14,16,18,20,22,-1,-1,24,-1,-1,-1,-1,-1,-1,-1,-1,-1],"split_conditions":[-1.2086945E0,-7.8267224E-2,1.6542727E-1,-1.2133917E0,7.331115E-2,-4.144874E-1,3.6964934E-2,3.812559E-2,-3.411083E-1,-1.2961385E0,-9.1204345E-3,-8.913296E-1,3.0538568E-2,-0E0,-4.5552764E-2,7.944383E-2,5.292076E-2,-4.4790085E-2,4.337913E-2,3.9385147E-2,-3.0745242E-2,-5.302872E-2,1.6863755E-3,2.7971718E-2,6.0822227E-4],"split_indices":[4,44,46,4,2,3,0,0,3,43,44,0,44,0,0,26,0,0,0,0,0,0,0,0,0],"split_type":[0,0,0,0,0,0,0,0,0,0,0,0,0,0,0,0,0,0,0,0,0,0,0,0,0],"sum_hessian":[2.4536987E3,1.2301029E3,1.2235958E3,5.4735756E0,1.2246293E3,1.2215347E3,2.0612602E0,2.2563086E0,3.2172673E0,1.2191016E3,5.527804E0,2.6154442E0,1.2189192E3,1.0009897E0,2.2162774E0,2.344252E0,1.2167572E3,1.8127316E0,3.7150722E0,1.3129256E0,1.3025186E0,1.217818E3,1.1012125E0,1.3059725E0,1.0382798E0],"tree_param":{"num_deleted":"0","num_feature":"77","num_nodes":"25","size_leaf_vector":"1"}},{"base_weights":[-9.175563E-4,1.0468765E0,-1.0501661E0,-1.8453205E-2,1.0516391E0,-1.0542471E0,3.739353E-2,3.6454078E-2,-5.8521944E-1,1.0550495E0,2.6601383E-1,-0E0,-1.055975E0,1.813583E-3,-4.254579E-2,4.2706612E-1,5.279405E-2,-4.218915E-2,4.3229386E-2,-5.2872956E-2,1.1085161E-3,2.836896E-2,1.9814329E-4],"categories":[],"categories_nodes":[],"categories_segments":[],"categories_sizes":[],"default_left":[0,0,0,0,0,0,0,0,0,0,0,0,0,0,0,0,0,0,0,0,0,0,0],"id":44,"left_children":[1,3,5,7,9,11,-1,-1,13,15,17,-1,19,-1,-1,21,-1,-1,-1,-1,-1,-1,-1],"loss_changes":[2.566859E3,6.0494385E0,9.379639E0,2.9917176E0,2.7036133E0,2.2104492E0,0E0,0E0,7.8829575E-1,5.004883E-3,5.0435905E0,0E0,1.9874268E0,0E0,0E0,1.4061654E-1,0E0,0E0,0E0,0E0,0E0,0E0,0E0],"parents":[2147483647,0,0,1,1,2,2,3,3,4,4,5,5,8,8,9,9,10,10,12,12,15,15],"right_children":[2,4,6,8,10,12,-1,-1,14,16,18,-1,20,-1,-1,22,-1,-1,-1,-1,-1,-1,-1],"split_conditions":[-1.2086945E0,-7.8267224E-2,1.6542727E-1,-1.2018043E0,7.331115E-2,-8.918594E-1,3.739353E-2,3.6454078E-2,-1.2121857E0,-1.2961385E0,-9.1204345E-3,-0E0,3.0538568E-2,1.813583E-3,-4.254579E-2,-1.2148197E0,5.279405E-2,-4.218915E-2,4.3229386E-2,-5.2872956E-2,1.1085161E-3,2.836896E-2,1.9814329E-4],"split_indices":[4,44,46,2,2,0,0,0,4,43,44,0,44,0,0,4,0,0,0,0,0,0,0],"split_type":[0,0,0,0,0,0,0,0,0,0,0,0,0,0,0,0,0,0,0,0,0,0,0],"sum_hessian":[2.3327888E3,1.1671569E3,1.165632E3,5.0881944E0,1.1620686E3,1.1634606E3,2.1714184E0,1.9945974E0,3.093597E0,1.1565775E3,5.491066E0,1.8250991E0,1.1616355E3,1.0723575E0,2.0212393E0,2.3688664E0,1.1542087E3,1.7218742E0,3.7691917E0,1.1601503E3,1.4851507E0,1.3453625E0,1.0235039E0],"tree_param":{"num_deleted":"0","num_feature":"77","num_nodes":"23","size_leaf_vector":"1"}},{"base_weights":[5.948964E-4,1.0431997E0,-1.0462519E0,-1.7645165E-1,1.0487963E0,3.9585227E-1,-1.0515819E0,3.3727463E-2,-6.937584E-1,1.0518457E0,2.2431922E-1,4.5175757E-2,-2.8942168E-2,-5.2708384E-2,3.3041783E-2,-9.424261E-4,-4.348653E-2,5.2636392E-2,4.1885E-1,-3.875282E-2,4.0922288E-2,-0E0,2.8148705E-2],"categories":[],"categories_nodes":[],"categories_segments":[],"categories_sizes":[],"default_left":[0,0,0,0,0,0,0,0,0,0,0,0,0,0,0,0,0,0,0,0,0,0,0],"id":45,"left_children":[1,3,5,7,9,11,13,-1,15,17,19,-1,-1,-1,-1,-1,-1,-1,21,-1,-1,-1,-1],"loss_changes":[2.4358396E3,7.9050293E0,9.041138E0,3.0593243E0,2.4354248E0,2.909821E0,5.6499023E0,0E0,3.9645004E-1,3.112793E-2,3.900943E0,0E0,0E0,0E0,0E0,0E0,0E0,0E0,1.5374243E-1,0E0,0E0,0E0,0E0],"parents":[2147483647,0,0,1,1,2,2,3,3,4,4,5,5,6,6,8,8,9,9,10,10,18,18],"right_children":[2,4,6,8,10,12,14,-1,16,18,20,-1,-1,-1,-1,-1,-1,-1,22,-1,-1,-1,-1],"split_conditions":[-1.2086945E0,-7.8267224E-2,-4.144874E-1,-1.2133917E0,1.1725971E-1,-8.870635E-1,7.6750955E-3,3.3727463E-2,-3.2490522E-1,3.2301087E0,-1.913482E-2,4.5175757E-2,-2.8942168E-2,-5.2708384E-2,3.3041783E-2,-9.424261E-4,-4.348653E-2,5.2636392E-2,-7.68898E-1,-3.875282E-2,4.0922288E-2,-0E0,2.8148705E-2],"split_indices":[4,44,3,4,2,0,3,0,5,36,44,0,0,0,0,0,0,0,0,0,0,0,0],"split_type":[0,0,0,0,0,0,0,0,0,0,0,0,0,0,0,0,0,0,0,0,0,0,0],"sum_hessian":[2.2297517E3,1.117189E3,1.1125629E3,4.8820114E0,1.1123069E3,3.7580442E0,1.1088049E3,1.6577086E0,3.224303E0,1.1078126E3,4.4942856E0,2.5865064E0,1.1715379E0,1.1075753E3,1.2295976E0,1.0133111E0,2.2109919E0,1.1054509E3,2.361691E0,1.4993671E0,2.9949186E0,1.0158143E0,1.3458766E0],"tree_param":{"num_deleted":"0","num_feature":"77","num_nodes":"23","size_leaf_vector":"1"}},{"base_weights":[-5.901066E-4,1.0408748E0,-1.0435636E0,1.0455084E0,-0E0,-1.0485358E0,5.600875E-1,2.4822892E-1,1.047966E0,-4.2129476E-2,3.7057914E-2,2.074057E-2,-1.0506756E0,3.6567114E-2,-0E0,3.6385804E-2,-1.7675987E-2,4.069718E-1,5.2443605E-2,1.871018E-2,-1.46994805E-2,-5.2577853E-2,-4.303982E-3,-0E0,2.7357066E-2],"categories":[],"categories_nodes":[],"categories_segments":[],"categories_sizes":[],"default_left":[0,0,0,0,0,0,0,0,0,0,0,0,0,0,0,0,0,0,0,0,0,0,0,0,0],"id":46,"left_children":[1,3,5,7,9,11,13,15,17,-1,-1,19,21,-1,-1,-1,-1,23,-1,-1,-1,-1,-1,-1,-1],"loss_changes":[2.314723E3,5.2073975E0,9.126343E0,1.6901855E0,4.169026E0,2.5545654E0,3.1440306E-1,1.6500951E0,4.1992188E-2,0E0,0E0,4.5267686E-1,6.965332E-1,0E0,0E0,0E0,0E0,1.3403612E-1,0E0,0E0,0E0,0E0,0E0,0E0,0E0],"parents":[2147483647,0,0,1,1,2,2,3,3,4,4,5,5,6,6,7,7,8,8,11,11,12,12,17,17],"right_children":[2,4,6,8,10,12,14,16,18,-1,-1,20,22,-1,-1,-1,-1,24,-1,-1,-1,-1,-1,-1,-1],"split_conditions":[-1.2086945E0,1.1725971E-1,1.1727485E-1,-7.8267224E-2,-2.4061246E-2,-4.144874E-1,-4.7961447E-1,-1.2133917E0,-1.2961385E0,-4.2129476E-2,3.7057914E-2,-2.8552738E-1,-9.472474E-2,3.6567114E-2,-0E0,3.6385804E-2,-1.7675987E-2,-7.2769177E-1,5.2443605E-2,1.871018E-2,-1.46994805E-2,-5.2577853E-2,-4.303982E-3,-0E0,2.7357066E-2],"split_indices":[4,2,46,44,44,3,63,4,43,0,0,36,3,0,0,0,0,50,0,0,0,0,0,0,0],"split_type":[0,0,0,0,0,0,0,0,0,0,0,0,0,0,0,0,0,0,0,0,0,0,0,0,0],"sum_hessian":[2.1289878E3,1.0652174E3,1.0637705E3,1.0605516E3,4.6657467E0,1.0608896E3,2.8808062E0,3.6976397E0,1.056854E3,2.158755E0,2.5069916E0,2.0081534E0,1.0588815E3,1.8639271E0,1.0168791E0,2.03386E0,1.6637797E0,2.282891E0,1.054571E3,1.0065249E0,1.0016285E0,1.0577213E3,1.1602643E0,1.0188606E0,1.2640303E0],"tree_param":{"num_deleted":"0","num_feature":"77","num_nodes":"25","size_leaf_vector":"1"}},{"base_weights":[-5.8298226E-4,1.0353734E0,-1.0409367E0,-1.08141296E-1,1.0408474E0,-1.0449636E0,3.522877E-2,3.3953954E-2,-6.392802E-1,3.781562E-1,1.0417793E0,7.141681E-2,-1.0475445E0,-4.1508246E-2,-3.542594E-4,-0E0,2.5836933E-2,5.213652E-2,4.089421E-1,3.5960045E-2,-2.7937314E-2,-5.2444693E-2,-0E0,2.7820462E-2,-0E0],"categories":[],"categories_nodes":[],"categories_segments":[],"categories_sizes":[],"default_left":[0,0,0,0,0,0,0,0,0,0,0,0,0,0,0,0,0,0,0,0,0,0,0,0,0],"id":47,"left_children":[1,3,5,7,9,11,-1,-1,13,15,17,19,21,-1,-1,-1,-1,-1,23,-1,-1,-1,-1,-1,-1],"loss_changes":[2.19521E3,6.593872E0,7.9138184E0,2.8054287E0,9.1308594E-2,3.095337E0,0E0,0E0,3.9105773E-1,1.2126124E-1,3.857422E-2,1.7187003E0,1.4626465E0,0E0,0E0,0E0,0E0,0E0,1.6330802E-1,0E0,0E0,0E0,0E0,0E0,0E0],"parents":[2147483647,0,0,1,1,2,2,3,3,4,4,5,5,8,8,9,9,10,10,11,11,12,12,18,18],"right_children":[2,4,6,8,10,12,-1,-1,14,16,18,20,22,-1,-1,-1,-1,-1,24,-1,-1,-1,-1,-1,-1],"split_conditions":[-1.2086945E0,-7.8267224E-2,1.6542727E-1,-1.2133917E0,-1.2961385E0,-4.144874E-1,3.522877E-2,3.3953954E-2,-1.9210654E-1,-1.2740774E-1,3.2301087E0,-3.3889863E-1,-9.472474E-2,-4.1508246E-2,-3.542594E-4,-0E0,2.5836933E-2,5.213652E-2,-2.2447139E-1,3.5960045E-2,-2.7937314E-2,-5.2444693E-2,-0E0,2.7820462E-2,-0E0],"split_indices":[4,44,46,4,43,3,0,0,46,59,36,1,3,0,0,0,0,0,7,0,0,0,0,0,0],"split_type":[0,0,0,0,0,0,0,0,0,0,0,0,0,0,0,0,0,0,0,0,0,0,0,0,0],"sum_hessian":[2.0348237E3,1.0195209E3,1.0153029E3,4.680827E0,1.01484E3,1.0134236E3,1.8793045E0,1.6977385E0,2.9830887E0,2.1468823E0,1.0126931E3,2.186608E0,1.011237E3,1.9292469E0,1.053842E0,1.0074376E0,1.1394446E0,1.01036884E3,2.324336E0,1.0868071E0,1.0998011E0,1.00996375E3,1.2732391E0,1.3232208E0,1.0011151E0],"tree_param":{"num_deleted":"0","num_feature":"77","num_nodes":"25","size_leaf_vector":"1"}},{"base_weights":[-5.5894017E-4,1.0347296E0,-1.0380577E0,1.0394154E0,-3.154615E-1,-1.0418733E0,3.5055805E-2,2.3068254E-1,1.0419304E0,2.4556074E-2,-3.8848E-2,2.1177556E-2,-1.0443903E0,3.424576E-2,-1.542971E-2,5.216205E-2,3.857356E-1,-5.2278575E-2,-0E0,-3.714734E-3,3.1279754E-2],"categories":[],"categories_nodes":[],"categories_segments":[],"categories_sizes":[],"default_left":[0,0,0,0,0,0,0,0,0,0,0,0,0,0,0,0,0,0,0,0,0],"id":48,"left_children":[1,3,5,7,9,11,-1,13,15,-1,-1,-1,17,-1,-1,-1,19,-1,-1,-1,-1],"loss_changes":[2.0750146E3,6.517456E0,7.1678467E0,1.5928955E0,1.9129936E0,4.057495E0,0E0,1.3258141E0,2.8076172E-1,0E0,0E0,0E0,1.1652832E0,0E0,0E0,0E0,5.0470674E-1,0E0,0E0,0E0,0E0],"parents":[2147483647,0,0,1,1,2,2,3,3,4,4,5,5,7,7,8,8,12,12,16,16],"right_children":[2,4,6,8,10,12,-1,14,16,-1,-1,-1,18,-1,-1,-1,20,-1,-1,-1,-1],"split_conditions":[-1.2086945E0,2.3001046E-1,4.3362968E-2,-7.8267224E-2,-1.2127409E0,-1.2725164E0,3.5055805E-2,-1.2133917E0,7.331115E-2,2.4556074E-2,-3.8848E-2,2.1177556E-2,1.1727485E-1,3.424576E-2,-1.542971E-2,5.216205E-2,-5.8920443E-1,-5.2278575E-2,-0E0,-3.714734E-3,3.1279754E-2],"split_indices":[4,2,44,44,4,2,0,4,2,0,0,0,46,0,0,0,12,0,0,0,0],"split_type":[0,0,0,0,0,0,0,0,0,0,0,0,0,0,0,0,0,0,0,0,0],"sum_hessian":[1.9298439E3,9.65904E2,9.6393994E2,9.628667E2,3.0372899E0,9.6228723E2,1.6527355E0,3.3959587E0,9.594707E2,1.0031546E0,2.0341353E0,1.2950515E0,9.609922E2,1.7973893E0,1.5985695E0,9.5681757E2,2.6531525E0,9.5988605E2,1.1061366E0,1.0029416E0,1.6502107E0],"tree_param":{"num_deleted":"0","num_feature":"77","num_nodes":"21","size_leaf_vector":"1"}},{"base_weights":[3.3993565E-3,-7.3427093E-1,1.0253966E0,-9.584065E-1,1.0178385E0,1.0325378E0,-3.0408889E-2,3.3739594E-1,-1.0216486E0,5.153528E-2,-6.024053E-3,6.153539E-1,5.2172016E-2,-7.891198E-1,5.6869406E-1,-1.0297602E0,3.976452E-2,9.234336E-1,-5.2380204E-1,-1.2312805E-3,-4.41557E-2,4.9986336E-2,2.5908378E-1,-8.4387976E-1,-5.218431E-2,4.7754675E-2,1.1012645E-2,1.29040275E-2,-4.1053258E-2,-4.3881513E-2,4.816126E-2,-2.0657016E-3,-5.0852634E-2],"categories":[],"categories_nodes":[],"categories_segments":[],"categories_sizes":[],"default_left":[0,0,0,0,0,0,0,0,0,0,0,0,0,0,0,0,0,0,0,0,0,0,0,0,0,0,0,0,0,0,0,0,0],"id":49,"left_children":[1,3,5,7,9,11,-1,13,15,-1,-1,17,-1,19,21,23,-1,25,27,-1,-1,-1,29,31,-1,-1,-1,-1,-1,-1,-1,-1,-1],"loss_changes":[1.3944847E3,4.228233E2,9.716736E0,7.850647E1,2.006012E0,2.7056885E0,0E0,1.21579075E1,1.4238281E1,0E0,0E0,8.365757E0,0E0,4.633937E-1,4.687374E0,1.274231E0,0E0,7.3265076E-2,1.5060277E0,0E0,0E0,0E0,1.9747107E1,9.417763E0,0E0,0E0,0E0,0E0,0E0,0E0,0E0,0E0,0E0],"parents":[2147483647,0,0,1,1,2,2,3,3,4,4,5,5,7,7,8,8,11,11,13,13,14,14,15,15,17,17,18,18,22,22,23,23],"right_children":[2,4,6,8,10,12,-1,14,16,-1,-1,18,-1,20,22,24,-1,26,28,-1,-1,-1,30,32,-1,-1,-1,-1,-1,-1,-1,-1,-1],"split_conditions":[9.327207E-3,1.00614175E-1,4.1320792E-1,-1.2296666E0,-4.819828E-1,4.3362968E-2,-3.0408889E-2,-7.8267224E-2,-1.7552972E-1,5.153528E-2,-6.024053E-3,-9.8643607E-1,5.2172016E-2,-1.0097535E0,-4.1338018E-1,-3.1253096E-1,3.976452E-2,-1.1864394E0,-3.119221E-1,-1.2312805E-3,-4.41557E-2,4.9986336E-2,-2.5733674E-1,-3.91173E-1,-5.218431E-2,4.7754675E-2,1.1012645E-2,1.29040275E-2,-4.1053258E-2,-4.3881513E-2,4.816126E-2,-2.0657016E-3,-5.0852634E-2],"split_indices":[44,46,2,2,2,44,0,44,14,0,0,2,0,42,3,14,0,2,14,0,0,0,13,3,0,0,0,0,0,0,0,0,0],"split_type":[0,0,0,0,0,0,0,0,0,0,0,0,0,0,0,0,0,0,0,0,0,0,0,0,0,0,0,0,0,0,0,0,0],"sum_hessian":[1.8476647E3,1.0732117E3,7.744529E2,9.519458E2,1.21265945E2,7.7150934E2,2.9435759E0,4.402279E1,9.07923E2,1.20090866E2,1.1750753E0,2.1345284E1,7.5016406E2,7.014634E0,3.7008156E1,9.043738E2,3.5492387E0,1.701957E1,4.3257136E0,1.0226747E0,5.9919596E0,1.44036875E1,2.2604467E1,6.782594E1,8.365478E2,1.5807402E1,1.2121679E0,1.1352106E0,3.1905031E0,8.497817E0,1.410665E1,1.2359974E1,5.546597E1],"tree_param":{"num_deleted":"0","num_feature":"77","num_nodes":"33","size_leaf_vector":"1"}},{"base_weights":[-2.0976092E-3,-7.284531E-1,1.0299243E0,-9.529326E-1,1.0267007E0,1.0335557E0,-1.8196493E-2,3.662422E-1,-1.017275E0,1.4910913E-2,5.1698614E-2,6.4417875E-1,5.2046638E-2,-7.6419395E-1,5.840776E-1,-1.0267936E0,4.087237E-2,4.6416648E-2,-4.095936E-1,-1.1588432E-3,-4.320883E-2,7.446283E-1,-1.10202745E-1,-8.640105E-1,-5.225187E-2,9.982405E-3,-3.5953786E-2,4.979854E-2,2.2997245E-2,-4.0485766E-2,3.7563603E-2,-2.2563532E-3,-5.008439E-2],"categories":[],"categories_nodes":[],"categories_segments":[],"categories_sizes":[],"default_left":[0,0,0,0,0,0,0,0,0,0,0,0,0,0,0,0,0,0,0,0,0,0,0,0,0,0,0,0,0,0,0,0,0],"id":50,"left_children":[1,3,5,7,9,11,-1,13,15,-1,-1,17,-1,19,21,23,-1,-1,25,-1,-1,27,29,31,-1,-1,-1,-1,-1,-1,-1,-1,-1],"loss_changes":[1.3196571E3,4.080932E2,4.1238403E0,7.824713E1,1.8139648E-1,1.2452393E0,0E0,1.1089918E1,1.6131165E1,0E0,0E0,5.33306E0,0E0,4.361E-1,4.263294E0,1.4910889E0,0E0,0E0,9.676685E-1,0E0,0E0,1.5607529E0,5.24966E0,1.0452744E1,0E0,0E0,0E0,0E0,0E0,0E0,0E0,0E0,0E0],"parents":[2147483647,0,0,1,1,2,2,3,3,4,4,5,5,7,7,8,8,11,11,13,13,14,14,15,15,18,18,21,21,22,22,23,23],"right_children":[2,4,6,8,10,12,-1,14,16,-1,-1,18,-1,20,22,24,-1,-1,26,-1,-1,28,30,32,-1,-1,-1,-1,-1,-1,-1,-1,-1],"split_conditions":[1.3916894E-2,1.1727485E-1,4.1320792E-1,-1.2304791E0,1.4161107E-1,4.3362968E-2,-1.8196493E-2,-7.8267224E-2,-1.7552972E-1,1.4910913E-2,5.1698614E-2,-9.8643607E-1,5.2046638E-2,-1.0097535E0,-1.6016851E-1,-3.874666E-1,4.087237E-2,4.6416648E-2,-3.1078237E-1,-1.1588432E-3,-4.320883E-2,-4.1180483E-1,-1.8477549E-1,-3.123363E-1,-5.225187E-2,9.982405E-3,-3.5953786E-2,4.979854E-2,2.2997245E-2,-4.0485766E-2,3.7563603E-2,-2.2563532E-3,-5.008439E-2],"split_indices":[44,46,2,2,46,44,0,44,14,0,0,2,0,42,0,3,0,0,14,0,0,3,13,14,0,0,0,0,0,0,0,0,0],"split_type":[0,0,0,0,0,0,0,0,0,0,0,0,0,0,0,0,0,0,0,0,0,0,0,0,0,0,0,0,0,0,0,0,0],"sum_hessian":[1.7584863E3,1.0323153E3,7.2617096E2,9.157122E2,1.16603134E2,7.2461334E2,1.557624E0,4.229594E1,8.7341626E2,1.703521E0,1.1489961E2,1.5367377E1,7.09246E2,6.354205E0,3.594174E1,8.6940063E2,4.015665E0,1.2272091E1,3.095286E0,1.0207728E0,5.333432E0,2.9249397E1,6.692339E0,9.304364E1,7.76357E2,1.0533847E0,2.0419014E0,1.4020835E1,1.5228563E1,3.7905755E0,2.9017637E0,1.3687362E1,7.935628E1],"tree_param":{"num_deleted":"0","num_feature":"77","num_nodes":"33","size_leaf_vector":"1"}},{"base_weights":[4.097666E-3,1.0252473E0,-1.0308373E0,1.0317066E0,2.1130508E-2,-1.0350859E0,3.2324344E-2,1.3557987E-1,1.034772E0,-4.378426E-2,4.0150497E-2,1.3594495E-1,-5.1924568E-2,-2.2756893E-2,3.268205E-2,1.6998628E-2,5.1795542E-2,3.5604835E-2,-2.4350466E-2],"categories":[],"categories_nodes":[],"categories_segments":[],"categories_sizes":[],"default_left":[0,0,0,0,0,0,0,0,0,0,0,0,0,0,0,0,0,0,0],"id":51,"left_children":[1,3,5,7,9,11,-1,13,15,-1,-1,17,-1,-1,-1,-1,-1,-1,-1],"loss_changes":[1.7727574E3,5.3494873E0,6.6445923E0,2.0471191E0,5.2655807E0,3.546936E0,0E0,1.5787532E0,1.7132568E-1,0E0,0E0,1.5213599E0,0E0,0E0,0E0,0E0,0E0,0E0,0E0],"parents":[2147483647,0,0,1,1,2,2,3,3,4,4,5,5,7,7,8,8,11,11],"right_children":[2,4,6,8,10,12,-1,14,16,-1,-1,18,-1,-1,-1,-1,-1,-1,-1],"split_conditions":[-1.2086945E0,5.0443355E-2,1.6542727E-1,-7.8267224E-2,-9.1204345E-3,-8.913296E-1,3.2324344E-2,-1.7357701E-1,-1.2961385E0,-4.378426E-2,4.0150497E-2,-1.2684901E0,-5.1924568E-2,-2.2756893E-2,3.268205E-2,1.6998628E-2,5.1795542E-2,3.5604835E-2,-2.4350466E-2],"split_indices":[4,2,46,44,44,0,0,46,43,0,0,2,0,0,0,0,0,0,0],"split_type":[0,0,0,0,0,0,0,0,0,0,0,0,0,0,0,0,0,0,0],"sum_hessian":[1.6754401E3,8.4338995E2,8.3205005E2,8.3787305E2,5.5169034E0,8.303892E2,1.6608448E0,3.121867E0,8.3475116E2,2.4541366E0,3.0627666E0,2.2098122E0,8.281794E2,1.4252087E0,1.6966584E0,1.9996649E0,8.327515E2,1.1570866E0,1.0527256E0],"tree_param":{"num_deleted":"0","num_feature":"77","num_nodes":"19","size_leaf_vector":"1"}},{"base_weights":[-1.9521933E-3,1.0234424E0,-1.0279388E0,1.0294847E0,-0E0,-1.0329772E0,3.4456387E-2,5.1534303E-2,3.486879E-1,3.7130397E-2,-3.568238E-2,6.497608E-3,-1.0356277E0,2.448003E-2,-0E0,-5.1864427E-2,8.6852646E-4],"categories":[],"categories_nodes":[],"categories_segments":[],"categories_sizes":[],"default_left":[0,0,0,0,0,0,0,0,0,0,0,0,0,0,0,0,0],"id":52,"left_children":[1,3,5,7,9,11,-1,-1,13,-1,-1,-1,15,-1,-1,-1,-1],"loss_changes":[1.6946758E3,4.970764E0,7.7125854E0,1.5759277E-1,3.5716636E0,2.701355E0,0E0,0E0,1.22745186E-1,0E0,0E0,0E0,1.5221558E0,0E0,0E0,0E0,0E0],"parents":[2147483647,0,0,1,1,2,2,3,3,4,4,5,5,8,8,12,12],"right_children":[2,4,6,8,10,12,-1,-1,14,-1,-1,-1,16,-1,-1,-1,-1],"split_conditions":[-1.2086945E0,7.331115E-2,1.6542727E-1,3.2301087E0,-1.2128035E0,-4.144874E-1,3.4456387E-2,5.1534303E-2,-2.9492494E-1,3.7130397E-2,-3.568238E-2,6.497608E-3,-9.472474E-2,2.448003E-2,-0E0,-5.1864427E-2,8.6852646E-4],"split_indices":[4,2,46,36,4,3,0,0,20,0,0,0,3,0,0,0,0],"split_type":[0,0,0,0,0,0,0,0,0,0,0,0,0,0,0,0,0],"sum_hessian":[1.6088452E3,8.046073E2,8.04238E2,7.998684E2,4.738898E0,8.023403E2,1.8976842E0,7.9779987E2,2.068545E0,2.3099084E0,2.4289896E0,1.6294502E0,8.007108E2,1.0684638E0,1.0000813E0,7.995596E2,1.1512445E0],"tree_param":{"num_deleted":"0","num_feature":"77","num_nodes":"17","size_leaf_vector":"1"}},{"base_weights":[-4.726588E-5,1.0218556E0,-1.0271914E0,-1.0764503E-1,5.1406633E-2,-1.0312644E0,3.048716E-2,-3.271368E-2,3.1540826E-2,7.540151E-3,-1.0342743E0,-5.1770706E-2,-1.8457301E-3],"categories":[],"categories_nodes":[],"categories_segments":[],"categories_sizes":[],"default_left":[0,0,0,0,0,0,0,0,0,0,0,0,0],"id":53,"left_children":[1,3,5,7,-1,9,-1,-1,-1,-1,11,-1,-1],"loss_changes":[1.6133667E3,5.665161E0,5.7821045E0,2.463737E0,0E0,2.9666748E0,0E0,0E0,0E0,0E0,7.223511E-1,0E0,0E0],"parents":[2147483647,0,0,1,1,2,2,3,3,5,5,10,10],"right_children":[2,4,6,8,-1,10,-1,-1,-1,-1,12,-1,-1],"split_conditions":[-1.2086945E0,-7.8267224E-2,1.6542727E-1,-3.6891438E-2,5.1406633E-2,-8.917289E-1,3.048716E-2,-3.271368E-2,3.1540826E-2,7.540151E-3,-9.472474E-2,-5.1770706E-2,-1.8457301E-3],"split_indices":[4,44,46,46,0,0,0,0,0,0,3,0,0],"split_type":[0,0,0,0,0,0,0,0,0,0,0,0,0],"sum_hessian":[1.5350637E3,7.694489E2,7.656148E2,4.0751715E0,7.653737E2,7.641446E2,1.4702208E0,2.485075E0,1.5900965E0,1.7317328E0,7.6241284E2,7.6140436E2,1.0085001E0],"tree_param":{"num_deleted":"0","num_feature":"77","num_nodes":"13","size_leaf_vector":"1"}},{"base_weights":[6.405358E-4,1.019891E0,-1.0245043E0,-7.326098E-2,1.0263045E0,3.1955793E-2,-1.0291687E0,3.199957E-2,-5.8564585E-1,1.0293713E0,1.54405E-1,-1.032415E0,2.9498635E-2,-4.659278E-3,-3.5100862E-2,1.3073008E-2,5.1534873E-2,3.3854768E-2,-2.9085448E-2,-5.1663507E-2,-1.5149051E-2],"categories":[],"categories_nodes":[],"categories_segments":[],"categories_sizes":[],"default_left":[0,0,0,0,0,0,0,0,0,0,0,0,0,0,0,0,0,0,0,0,0],"id":54,"left_children":[1,3,5,7,9,-1,11,-1,13,15,17,19,-1,-1,-1,-1,-1,-1,-1,-1,-1],"loss_changes":[1.522539E3,5.293579E0,6.333557E0,2.2348747E0,1.6655273E0,0E0,4.463257E0,0E0,5.989957E-2,3.3843994E-1,1.8799375E0,4.760742E-3,0E0,0E0,0E0,0E0,0E0,0E0,0E0,0E0,0E0],"parents":[2147483647,0,0,1,1,2,2,3,3,4,4,6,6,8,8,9,9,10,10,11,11],"right_children":[2,4,6,8,10,-1,12,-1,14,16,18,20,-1,-1,-1,-1,-1,-1,-1,-1,-1],"split_conditions":[-1.2086945E0,-7.8267224E-2,-4.1466013E-1,-1.2137232E0,9.5682286E-2,3.1955793E-2,4.3362968E-2,3.199957E-2,-1.0510725E0,-1.2961385E0,-3.119221E-1,1.00614175E-1,2.9498635E-2,-4.659278E-3,-3.5100862E-2,1.3073008E-2,5.1534873E-2,3.3854768E-2,-2.9085448E-2,-5.1663507E-2,-1.5149051E-2],"split_indices":[4,44,3,4,2,0,44,0,2,43,14,46,0,0,0,0,0,0,0,0,0],"split_type":[0,0,0,0,0,0,0,0,0,0,0,0,0,0,0,0,0,0,0,0,0],"sum_hessian":[1.4551436E3,7.29721E2,7.2542255E2,4.1045322E0,7.2561646E2,1.5879692E0,7.238346E2,1.5302192E0,2.574313E0,7.2277893E2,2.837529E0,7.228095E2,1.0250725E0,1.0004956E0,1.5738175E0,1.7177123E0,7.210612E2,1.7856337E0,1.0518953E0,7.214102E2,1.3993056E0],"tree_param":{"num_deleted":"0","num_feature":"77","num_nodes":"21","size_leaf_vector":"1"}},{"base_weights":[2.5466974E-3,1.0172683E0,-1.0209212E0,-1.4918016E-1,1.0244997E0,-5.131114E-2,-5.158316E-2,3.0047351E-2,-6.1306316E-1,1.0287966E0,2.0988673E-1,4.3529134E-2,-4.1029606E-2,-3.3765496E-3,-3.7793558E-2,1.2572102E-2,5.150949E-2,-3.7181802E-2,3.845946E-2],"categories":[],"categories_nodes":[],"categories_segments":[],"categories_sizes":[],"default_left":[0,0,0,0,0,0,0,0,0,0,0,0,0,0,0,0,0,0,0],"id":55,"left_children":[1,3,5,7,9,11,-1,-1,13,15,17,-1,-1,-1,-1,-1,-1,-1,-1],"loss_changes":[1.4438435E3,6.1294556E0,7.0473633E0,2.1405547E0,2.0896606E0,6.906295E0,0E0,0E0,1.5658331E-1,3.600464E-1,3.2519162E0,0E0,0E0,0E0,0E0,0E0,0E0,0E0,0E0],"parents":[2147483647,0,0,1,1,2,2,3,3,4,4,5,5,8,8,9,9,10,10],"right_children":[2,4,6,8,10,12,-1,-1,14,16,18,-1,-1,-1,-1,-1,-1,-1,-1],"split_conditions":[-1.2086945E0,-7.8267224E-2,-1.190813E0,-1.2133917E0,7.331115E-2,-1.1864394E0,-5.158316E-2,3.0047351E-2,-4.9480316E-1,-1.2961385E0,-9.1204345E-3,4.3529134E-2,-4.1029606E-2,-3.3765496E-3,-3.7793558E-2,1.2572102E-2,5.150949E-2,-3.7181802E-2,3.845946E-2],"split_indices":[4,44,4,4,2,2,0,0,34,43,44,0,0,0,0,0,0,0,0],"split_type":[0,0,0,0,0,0,0,0,0,0,0,0,0,0,0,0,0,0,0],"sum_hessian":[1.3882698E3,6.971657E2,6.911041E2,4.0892835E0,6.930764E2,7.7379327E0,6.833662E2,1.3672745E0,2.7220092E0,6.890561E2,4.0202994E0,3.4007971E0,4.3371353E0,1.0155787E0,1.7064304E0,1.6857492E0,6.8737036E2,1.2983851E0,2.7219143E0],"tree_param":{"num_deleted":"0","num_feature":"77","num_nodes":"19","size_leaf_vector":"1"}},{"base_weights":[-3.0769433E-3,-7.2057974E-1,1.0175215E0,-9.446269E-1,9.9881303E-1,3.5013238E-1,5.1345367E-2,3.4275082E-1,-1.0084704E0,5.068105E-2,-3.928298E-3,3.975787E-2,-2.824743E-2,-3.6263496E-2,5.432927E-1,-1.0179353E0,3.76296E-2,7.864051E-1,4.873027E-2,